// MLP Model information
// Can be generated by MLP-Training-for-ESP32.ipynb and pasted into this file
// Train mean and standard deviation used to standardise EMG data

const float TRAIN_MEAN[] = { 3.795938196496381e-18f, 2.8536209861249144e-18f, 1.2333095061528447e-17f, 2.4959553028172538e-17f, -5.446474945480366e-18f, -8.474928370007534e-19f, 1.0241032324037076e-17f, -1.2626457966644092e-17f };
const float TRAIN_SD[] = { 1.0000000000000007f, 1.0000000000000262f, 1.0000000000000036f, 1.0000000000000087f, 1.000000000000007f, 1.0000000000000169f, 1.0000000000000016f, 0.9999999999999764f };
const float WEIGHTS[] PROGMEM = { -0.1435416340827942f, 0.16366887092590332f, 0.13797473907470703f, -0.02838708460330963f, 0.13962846994400024f, -0.1819211095571518f, 0.23090006411075592f, -0.16713833808898926f, -0.19179773330688477f, -0.07579777389764786f, 0.20937584340572357f, 0.23047274351119995f, -0.05158485844731331f, 0.019278958439826965f, -0.062181346118450165f, -0.18294720351696014f, -0.03612533584237099f, 0.03564994037151337f, 0.05981539562344551f, 0.03360673040151596f, -0.17130199074745178f, 0.2019006907939911f, 0.16756758093833923f, 0.09146269410848618f, -0.08235379308462143f, 0.1314111202955246f, 0.10470498353242874f, 0.017487630248069763f, -0.15814946591854095f, -0.025764646008610725f, 0.21933867037296295f, -0.04466878995299339f, -0.12000823765993118f, 0.0797656923532486f, 0.14739342033863068f, -0.33035901188850403f, 0.20059765875339508f, -0.19990253448486328f, 0.06114911288022995f, -0.18647222220897675f, 0.07554279267787933f, -0.11888410896062851f, 0.06055086478590965f, -0.10700756311416626f, 0.1056535616517067f, -0.16101227700710297f, 0.16932636499404907f, -0.15251947939395905f, 0.02745439112186432f, -0.0537225641310215f, 0.15691374242305756f, 0.04056011885404587f, 0.13951605558395386f, -0.06499479711055756f, -0.006840555928647518f, -0.011169223114848137f, 0.17032411694526672f, -0.02842743508517742f, -0.09833353757858276f, 0.03174549341201782f, -0.06354457139968872f, 0.008516465313732624f, -0.14287404716014862f, -0.11215727031230927f, 0.05251626297831535f, -0.22624003887176514f, 0.1810794621706009f, 0.040635883808135986f, -0.2592107653617859f, 0.2653084993362427f, 0.14154674112796783f, -0.07772267609834671f, -0.2207186073064804f, -0.10621841996908188f, -0.20054617524147034f, 0.16826294362545013f, 0.35489529371261597f, -0.04778096079826355f, -0.11535407602787018f, 0.10662726312875748f, -0.08525577187538147f, -0.2044288069009781f, 0.036979224532842636f, 0.21289920806884766f, -0.041523225605487823f, -0.46540704369544983f, -0.13869397342205048f, -0.3184199631214142f, 0.13148923218250275f, 0.08939878642559052f, -0.19693350791931152f, -0.12474285066127777f, -0.19903144240379333f, 0.09016407281160355f, -0.16059894859790802f, -0.3935532867908478f, 0.05342724546790123f, -0.10913510620594025f, 0.018405184149742126f, 0.048648443073034286f, -0.16611841320991516f, -0.19428370893001556f, -0.09972300380468369f, -0.21186915040016174f, 0.02801099605858326f, -0.0681862086057663f, -0.07682491093873978f, 0.04233802482485771f, -0.1753973364830017f, 0.138268381357193f, 0.09989301860332489f, 0.1305350363254547f, -0.11066744476556778f, 0.04614044725894928f, -0.11892733722925186f, -0.1609317809343338f, -0.09776144474744797f, -0.08535373955965042f, 0.19056521356105804f, -0.09938888251781464f, 0.2112101912498474f, -0.15329310297966003f, 0.020027445629239082f, -0.18998761475086212f, -0.04104211553931236f, 0.10346198827028275f, 0.2178487628698349f, 0.13532648980617523f, -0.01653268001973629f, 0.17911995947360992f, 0.09441238641738892f, 0.11975405365228653f, -0.0866774171590805f, -0.07335349917411804f, -0.034443628042936325f, -0.6070131659507751f, -0.27354228496551514f, 0.047678377479314804f, 0.1361621916294098f, 0.1710258573293686f, -0.18255233764648438f, 0.2353648990392685f, -0.0699167400598526f, -0.13121213018894196f, -0.042641617357730865f, -0.08096142113208771f, 0.16748276352882385f, 0.1176697164773941f, -0.08528883755207062f, -0.06603428721427917f, 0.011293023824691772f, 0.18549159169197083f, 0.1949341744184494f, -0.10169408470392227f, -0.0959208756685257f, 0.04749387130141258f, 0.17450754344463348f, -0.06484557688236237f, -0.040142353624105453f, -0.1776520311832428f, 0.21682505309581757f, 0.20908597111701965f, 0.14517299830913544f, -0.07828854024410248f, -0.08138155937194824f, -0.030788633972406387f, -0.09467720985412598f, 0.11332022398710251f, -0.17158867418766022f, -0.021687118336558342f, -0.02327563427388668f, 0.15459416806697845f, -0.07223484665155411f, -0.12044401466846466f, -0.07155205309391022f, -0.04828254133462906f, 0.23682263493537903f, -0.11893334239721298f, -0.09012039005756378f, -0.08141501992940903f, -0.004778824280947447f, -0.01780444011092186f, -0.1318434625864029f, -0.19841332733631134f, -0.026174578815698624f, -0.2383837252855301f, 0.11476197093725204f, -0.0859382376074791f, 0.06983757764101028f, 0.11950273811817169f, -0.03307080268859863f, -0.09230116009712219f, -0.23631849884986877f, 0.022671440616250038f, -0.23304222524166107f, -0.19213959574699402f, -0.0469667911529541f, 0.10570354759693146f, -0.03415711224079132f, -0.1636820286512375f, 0.014727219939231873f, -0.22443346679210663f, -0.03125527501106262f, -0.6332547664642334f, -0.1266406923532486f, -1.253626823425293f, -0.10098281502723694f, -0.8201783299446106f, -0.8895196914672852f, 0.36090022325515747f, 0.925563633441925f, 0.9643346667289734f, -0.0839792788028717f, -0.045227497816085815f, 0.08533623069524765f, -0.5460736751556396f, 0.5022743940353394f, -0.9316177368164062f, -0.35094699263572693f, 0.3994057774543762f, -0.1401643007993698f, 0.7156489491462708f, -0.14166685938835144f, 0.1173536479473114f, -0.1889285296201706f, 0.7573713660240173f, 0.869482696056366f, -0.03003518283367157f, -0.4003021717071533f, 1.0261205434799194f, 0.786648154258728f, 0.035474468022584915f, 0.9250400066375732f, -0.018681880086660385f, 1.4214417934417725f, -1.5196183919906616f, -1.560782551765442f, -1.0339680910110474f, -0.16299055516719818f, 0.21549834311008453f, 0.14107666909694672f, -0.07772982120513916f, -0.9200930595397949f, 0.25792786478996277f, -0.08070942759513855f, -1.554909110069275f, 0.17695575952529907f, 0.1442675143480301f, -0.2258157879114151f, -0.09758981317281723f, 0.19790710508823395f, -0.02366243116557598f, 0.10486084222793579f, 0.0535895861685276f, -0.19690778851509094f, 0.1346270591020584f, 0.07758357375860214f, 0.06502878665924072f, -0.43661901354789734f, 0.806890606880188f, 0.029323909431695938f, -0.35814517736434937f, 0.07682294398546219f, -0.22718900442123413f, 0.005389154888689518f, 0.02283652499318123f, 0.24804863333702087f, -0.2535824775695801f, 0.04550596699118614f, 0.5597307085990906f, 0.05735689774155617f, 0.26908063888549805f, 0.40200358629226685f, 0.09723971039056778f, 0.06014086306095123f, 0.3225730061531067f, -0.5080239772796631f, -0.23311376571655273f, 0.5975531339645386f, 0.17979101836681366f, 0.04292653501033783f, 0.05078316107392311f, 0.26029348373413086f, -0.052634455263614655f, 0.1426132470369339f, -0.09728479385375977f, -0.42852306365966797f, 0.15693870186805725f, -0.3399515450000763f, -0.04223017394542694f, 0.23547251522541046f, 0.16805626451969147f, -0.22459815442562103f, -0.4017210304737091f, 0.18333187699317932f, 0.32256588339805603f, 0.06997507065534592f, -0.15001888573169708f, -0.0007683783769607544f, 0.12095730006694794f, 0.21130920946598053f, 0.3682672381401062f, -0.35908958315849304f, -0.2376406341791153f, 0.19285906851291656f, 0.07041643559932709f, 0.23501107096672058f, -0.018756907433271408f, 0.22036083042621613f, 0.2910669147968292f, 0.25204557180404663f, 0.216225266456604f, -0.20134258270263672f, -0.10035805404186249f, -0.044808968901634216f, 0.0065987808629870415f, -0.4767332375049591f, 0.5364123582839966f, -0.0892975777387619f, -0.3327983617782593f, 0.21370190382003784f, 0.09628486633300781f, -0.5848256349563599f, 0.02104339189827442f, -0.00780040118843317f, -0.8761472105979919f, 0.8745719790458679f, -0.22063329815864563f, -0.8536319732666016f, -0.05134148895740509f, 0.11438558250665665f, -0.1512899249792099f, -0.3777550160884857f, 0.08791405707597733f, -0.7487658262252808f, 0.37637677788734436f, 0.7257928252220154f, -0.43937376141548157f, 0.6282912492752075f, -0.1753067672252655f, -0.21206216514110565f, -0.17021510004997253f, 0.6409398913383484f, 0.5820047855377197f, 0.20418041944503784f, -1.7236049175262451f, 0.1818283349275589f, 0.1949714869260788f, -0.0963454395532608f, -0.11776787042617798f, -0.010980874300003052f, -0.20818085968494415f, 0.05911088362336159f, 0.10224402695894241f, -0.005834243260324001f, 0.1891097128391266f, -0.15800821781158447f, 0.1498199999332428f, -0.08994325250387192f, 0.008021346293389797f, -0.09286779910326004f, 0.13809272646903992f, -0.17357325553894043f, -0.1970723569393158f, -0.03741806745529175f, 0.08860885351896286f, -0.13761603832244873f, -0.21150033175945282f, 0.05507015809416771f, 0.2476913183927536f, -0.11447004973888397f, -0.15705101191997528f, 0.05846226215362549f, 0.20215582847595215f, 0.08629526942968369f, -0.18448060750961304f, 0.04182390868663788f, -0.02208329737186432f, 0.15274736285209656f, -0.08211471885442734f, 0.16434067487716675f, -0.2218129187822342f, 0.10263613611459732f, 0.06692790985107422f, 0.23525291681289673f, 0.177105113863945f, -0.15411031246185303f, 0.1550389677286148f, -0.01993940956890583f, -0.009080350399017334f, 0.00781320035457611f, -0.053374677896499634f, -0.05010819807648659f, 0.20207417011260986f, -0.034786079078912735f, -0.06498733907938004f, -0.08665171265602112f, -0.2049454152584076f, -0.16637708246707916f, 0.23380054533481598f, -0.20676487684249878f, -0.09190569818019867f, 0.12103428691625595f, -0.13187351822853088f, 0.10080822557210922f, 0.12488830089569092f, 0.05289936810731888f, -0.019899677485227585f, -0.25758033990859985f, 0.5473830103874207f, 0.04125216603279114f, 0.05170881375670433f, 0.1805698126554489f, -0.20888468623161316f, 0.10043834149837494f, -0.3214092254638672f, 0.08317365497350693f, 0.16825060546398163f, 0.12515676021575928f, 0.2129063457250595f, -0.17606939375400543f, -0.23889712989330292f, -0.07096732407808304f, -0.23326197266578674f, -0.01741839200258255f, -0.27005013823509216f, -0.3433014452457428f, 0.14504633843898773f, 0.06699646264314651f, -0.03673773631453514f, 0.06001980975270271f, 0.04039762169122696f, 0.21184729039669037f, -0.019958170130848885f, -0.10698787122964859f, 0.10661748051643372f, 0.12129003554582596f, -0.3047000467777252f, 0.3027275502681732f, 0.2221115082502365f, 0.12319992482662201f, 0.22174565494060516f, 0.11592520028352737f, -0.015790410339832306f, 0.17431162297725677f, -0.2643740475177765f, 0.047495126724243164f, -0.08868192136287689f, 0.2216813713312149f, -0.06645859777927399f, -0.23254188895225525f, 0.13173288106918335f, -0.024895114824175835f, -0.05164694786071777f, -0.1918223649263382f, -0.05705884471535683f, 0.07725131511688232f, -0.2894480526447296f, -0.15633432567119598f, 0.26284268498420715f, 0.14946076273918152f, 0.4473116099834442f, 0.18972685933113098f, -0.008987262845039368f, 0.06968490779399872f, -0.12158249318599701f, -0.1480206400156021f, -0.12249211966991425f, -0.02762938290834427f, 0.14602355659008026f, -0.23669996857643127f, -0.062041379511356354f, -0.3310256600379944f, -0.26786893606185913f, 0.16499526798725128f, -0.002691582776606083f, -0.23161011934280396f, 0.16589324176311493f, 0.26130709052085876f, 0.06887560337781906f, -0.09768228977918625f, -0.17951782047748566f, 0.24203762412071228f, 0.25719571113586426f, 0.05661047250032425f, -0.05780932307243347f, -0.09365241974592209f, -0.3144012689590454f, 0.1603032350540161f, -0.011578336358070374f, 0.216605082154274f, 0.04068569839000702f, 0.12586160004138947f, 0.18737317621707916f, -0.05776006728410721f, -0.043873131275177f, 0.04834578186273575f, -0.09490834176540375f, 0.16711114346981049f, -0.1863906979560852f, -0.15954843163490295f, -0.18712693452835083f, -0.00623061740770936f, -0.1649273782968521f, -0.1076543927192688f, 0.14952948689460754f, -0.23064126074314117f, 0.08793623000383377f, -0.167554572224617f, 0.10086099803447723f, -0.19502942264080048f, 0.05059100314974785f, 0.05074422433972359f, 0.19242842495441437f, -0.0903511494398117f, 0.013197720982134342f, -0.1366027295589447f, -0.12280281633138657f, -0.1893273890018463f, 0.027582794427871704f, 0.021329859271645546f, -0.12518402934074402f, -0.04498761519789696f, -0.21926599740982056f, 0.17456895112991333f, -0.23113544285297394f, 0.1519048810005188f, 0.20671041309833527f, 0.3174927830696106f, 0.16822309792041779f, -0.16568760573863983f, 0.1254289448261261f, 0.1497056782245636f, -0.05156634747982025f, 0.17705786228179932f, 0.017263250425457954f, 0.13353145122528076f, 0.056817956268787384f, -0.15737701952457428f, 0.16183353960514069f, 0.1116379052400589f, 0.02831907570362091f, 0.13897839188575745f, 0.30662721395492554f, 0.08621356636285782f, -0.032643139362335205f, 0.1378636509180069f, -0.07620230317115784f, -0.07966078817844391f, -0.16768813133239746f, 0.1713499277830124f, 0.2481803297996521f, -0.03191633149981499f, -0.03943170979619026f, 0.05615595728158951f, -0.21714763343334198f, -0.03400983288884163f, -0.863735020160675f, -0.7849498391151428f, 0.8507120609283447f, 0.29471418261528015f, 0.504131555557251f, -0.22897377610206604f, 0.08182184398174286f, 0.02544178068637848f, -0.3828931152820587f, 0.3531370759010315f, -0.8452975749969482f, -0.6467932462692261f, 0.5012468695640564f, -0.17910891771316528f, 0.6529305577278137f, -0.457410991191864f, 0.34528791904449463f, -0.13834838569164276f, -0.21473956108093262f, -0.7380295395851135f, -0.10618655383586884f, 0.6646328568458557f, 0.7517246007919312f, -0.8005409240722656f, -0.16798891127109528f, 0.5224935412406921f, -0.012373686768114567f, 0.7512655258178711f, -0.45398804545402527f, -1.155847191810608f, -0.8160984516143799f, 0.38004642724990845f, -0.037975460290908813f, 0.20487253367900848f, 0.18208171427249908f, -0.7334378361701965f, 0.6500139832496643f, -0.13912174105644226f, -0.6775280237197876f, -0.17429926991462708f, 0.0679839700460434f, -0.21647098660469055f, 0.15129321813583374f, 0.0782039612531662f, 0.35068976879119873f, -0.4485678970813751f, 0.10506456345319748f, -0.17993098497390747f, 0.03946143016219139f, -0.010347753763198853f, 0.007928004488348961f, 0.013637486845254898f, 0.8864357471466064f, 0.25981706380844116f, 0.003509006928652525f, 0.1471209079027176f, -0.1947135180234909f, 0.06463966518640518f, -0.3704862892627716f, -0.6007440686225891f, 0.5965232849121094f, 0.432761549949646f, 0.5279333591461182f, -0.05854583531618118f, -0.07359533756971359f, -0.2988418936729431f, -0.17684148252010345f, -0.21312099695205688f, -0.21035006642341614f, -0.09212877601385117f, 0.18053407967090607f, 0.26424530148506165f, -0.7133449912071228f, -0.06612244993448257f, 0.10776337236166f, -0.5045684576034546f, 0.3476197123527527f, -0.6083235740661621f, 0.7808032631874084f, 0.13648247718811035f, -0.22564412653446198f, 0.4530166685581207f, -0.21766655147075653f, 0.02886374294757843f, 0.0928247720003128f, 0.14613403379917145f, 0.17680029571056366f, -0.22279541194438934f, -0.26248854398727417f, -0.04736490547657013f, 0.0799621194601059f, 0.08569158613681793f, 0.21274714171886444f, 0.19306974112987518f, -0.6218597888946533f, -0.30889269709587097f, 0.05914833024144173f, 0.15840162336826324f, -0.5232947468757629f, -0.22688201069831848f, -0.10146146267652512f, -0.4707143306732178f, -2.365096092224121f, -0.04325743392109871f, -0.403556227684021f, -0.22225062549114227f, -0.17082351446151733f, 0.1613660752773285f, -0.031000645831227303f, -0.30362173914909363f, -0.3518798351287842f, 0.21466226875782013f, 0.7131047248840332f, 0.004802656825631857f, -0.08410684764385223f, 0.3136679232120514f, 0.14493916928768158f, -0.07989929616451263f, 0.13082341849803925f, 0.13062529265880585f, 0.017868295311927795f, -1.1867209672927856f, -0.07375320792198181f, -0.022353826090693474f, 0.060514435172080994f, -0.04492921754717827f, 0.1604493111371994f, 0.3395361006259918f, -0.5362416505813599f, -1.5004087686538696f, -0.25720342993736267f, -0.4900246560573578f, 0.18211738765239716f, 0.17684103548526764f, 0.2118031531572342f, 0.16717955470085144f, 0.05086046829819679f, 0.13959471881389618f, 0.9840098023414612f, 0.05786077305674553f, 0.0705789178609848f, 0.050111666321754456f, 0.7473558187484741f, 0.047431543469429016f, 0.021332761272788048f, -0.1743447184562683f, -0.24662861227989197f, -0.21535395085811615f, 0.1265425831079483f, 0.15809713304042816f, 0.09681857377290726f, 0.15274453163146973f, 0.16376733779907227f, 0.20684154331684113f, -0.24732519686222076f, 0.14060334861278534f, 0.16588608920574188f, -0.2331119328737259f, -0.061630669981241226f, -0.07888979464769363f, 0.24147020280361176f, 0.07239086925983429f, 0.08304087817668915f, 0.029128413647413254f, -0.06417196244001389f, 0.029566103592514992f, -0.049317680299282074f, 0.13512572646141052f, -0.15017636120319366f, -0.1409791260957718f, -0.034168124198913574f, 0.3732835054397583f, 0.13103395700454712f, 0.012009657919406891f, -0.021463975310325623f, 0.011619656346738338f, -0.007297183852642775f, -0.047833461314439774f, -0.21106739342212677f, -0.15793800354003906f, -0.044175103306770325f, -0.012728951871395111f, -0.12155073881149292f, -0.108461394906044f, 0.026188984513282776f, 0.01150048989802599f, 0.043889615684747696f, 0.10229814797639847f, -0.13678885996341705f, -0.13679371774196625f, 0.07344226539134979f, -0.22098380327224731f, 0.11245682835578918f, -0.18893107771873474f, -0.2550853490829468f, -0.17625226080417633f, -0.22200791537761688f, 0.08941099047660828f, -0.008500764146447182f, 0.11708494275808334f, -0.21346193552017212f, -0.23787184059619904f, 0.41772162914276123f, 0.08659882098436356f, 0.0721079558134079f, -0.07991869002580643f, 0.013173922896385193f, 0.008866535499691963f, -0.07046359032392502f, -0.1166241243481636f, 0.06916321069002151f, 0.2185114324092865f, -0.13170598447322845f, -0.19449548423290253f, -0.0967649593949318f, -0.07907600700855255f, -0.12052273750305176f, 0.11706342548131943f, -0.20356450974941254f, -0.08589579910039902f, -0.07368224859237671f, 0.10516590625047684f, 0.28168967366218567f, -0.010478810407221317f, 0.21468906104564667f, 0.2948322594165802f, 0.33146318793296814f, -0.3071257770061493f, -0.06980306655168533f, -0.4479926526546478f, -0.13285118341445923f, -0.09053312987089157f, -0.21626922488212585f, 0.2130536288022995f, 0.07481898367404938f, -0.20148667693138123f, 0.11331381648778915f, -0.2038942575454712f, 0.08149966597557068f, 0.2154862880706787f, -0.17408102750778198f, 0.05187825858592987f, 0.2627509832382202f, -0.20656690001487732f, 0.058810360729694366f, -0.18158206343650818f, -0.025551537051796913f, -0.10050257295370102f, 0.0684705451130867f, -0.08866957575082779f, -0.23516006767749786f, 0.15418650209903717f, 0.06285233050584793f, -0.14409124851226807f, -0.13676485419273376f, -0.15255799889564514f, -0.20968249440193176f, 0.13919396698474884f, 0.11986356973648071f, 0.10102540254592896f, -0.1508762389421463f, 0.1778608113527298f, -0.08829744905233383f, 0.12026510387659073f, 0.12545950710773468f, -0.04669523984193802f, 0.1190631240606308f, -0.023122716695070267f, -0.14739660918712616f, 0.09308449178934097f, -0.02764253318309784f, 0.15970443189144135f, 0.10925568640232086f, -0.07452782988548279f, 0.14510506391525269f, 0.12494999915361404f, 0.3137816786766052f, 0.11044686287641525f, -0.1944572776556015f, -0.3290638327598572f, -0.15955586731433868f, -0.07252897322177887f, 0.04050309956073761f, 0.16180779039859772f, -0.022923544049263f, -0.0784202590584755f, -0.18896615505218506f, 0.013919482007622719f, 0.23116418719291687f, 0.03343810886144638f, -0.10595682263374329f, -0.19043338298797607f, 0.1349334567785263f, 0.056258782744407654f, -0.1637123078107834f, -0.14672015607357025f, -0.007524110376834869f, -0.13949839770793915f, 0.20012587308883667f, 0.03984393551945686f, -0.18141379952430725f, -0.24079591035842896f, 0.08005303144454956f, 0.08692725002765656f, 0.09556416422128677f, -0.030752725899219513f, -0.19761991500854492f, -0.22761210799217224f, -0.18238919973373413f, -0.1518464982509613f, 0.20725826919078827f, 0.07469984889030457f, 0.06267420202493668f, -0.13885681331157684f, -0.11989683657884598f, 0.049978096038103104f, -0.07627218216657639f, 0.1510324478149414f, -0.14013582468032837f, 0.09462638944387436f, -0.12137177586555481f, 0.3437640070915222f, 0.06951507180929184f, -0.15346011519432068f, 0.15039418637752533f, -0.18055002391338348f, -0.04369646683335304f, 0.05374094843864441f, -0.09514329582452774f, -0.11726906150579453f, -0.1777385175228119f, -0.002547550480812788f, -0.18582023680210114f, -0.04131636023521423f, 0.11877356469631195f, -0.19211390614509583f, 0.13988609611988068f, -0.13817667961120605f, -0.17058846354484558f, -0.1702713668346405f, 0.08353354036808014f, -0.06279917061328888f, -0.05769580602645874f, 0.06039811670780182f, 0.29970628023147583f, -0.2625757157802582f, -0.5554568767547607f, 0.07849831879138947f, -0.6596867442131042f, 0.04628068953752518f, -0.6861180663108826f, -0.7057057023048401f, 0.6658239364624023f, 0.6966591477394104f, 0.4860360324382782f, 0.03157750517129898f, -0.04820843040943146f, -0.07951042801141739f, -0.856596052646637f, 0.9291137456893921f, -0.6821048855781555f, -0.3216932713985443f, 0.060227587819099426f, 0.16715800762176514f, 0.41879767179489136f, -0.4437095522880554f, -0.2172355204820633f, -0.16164100170135498f, -0.02950729988515377f, 0.21922250092029572f, -0.0019487887620925903f, 0.8607930541038513f, 0.6322311162948608f, -0.852543830871582f, -0.023648442700505257f, 0.8637293577194214f, 0.18256911635398865f, 0.4829276502132416f, -0.06439898163080215f, -0.923509955406189f, -0.4416162669658661f, 0.6607463955879211f, 0.1980811208486557f, -0.1383415162563324f, 0.013344988226890564f, -0.1935601830482483f, 0.5972363948822021f, -0.26689642667770386f, -1.2351617813110352f, -0.14275845885276794f, -0.045383766293525696f, 0.04091589152812958f, 0.1661457121372223f, 0.12480978667736053f, 0.6103241443634033f, -0.23882757127285004f, 0.2956043481826782f, -0.22683854401111603f, -0.07354634255170822f, 0.14194266498088837f, -0.07774534076452255f, 0.0235862098634243f, 1.9920172691345215f, 0.4503122568130493f, 0.4793364703655243f, 0.09644705802202225f, 0.186753049492836f, 0.22299671173095703f, -0.17881473898887634f, -0.7411677241325378f, 0.5214836001396179f, 0.6568717956542969f, -0.052526768296957016f, -0.08273229002952576f, 0.21807506680488586f, -0.41036900877952576f, 0.26835331320762634f, 0.07944352179765701f, -0.433093786239624f, -0.17901445925235748f, -0.0267726331949234f, 0.734056830406189f, -1.133839726448059f, 1.2863801717758179f, 0.10306394100189209f, 0.056975506246089935f, 0.6033300757408142f, -0.456185907125473f, -0.8907946944236755f, -0.6523181200027466f, -0.28435686230659485f, 0.6866781711578369f, 0.1993415802717209f, -0.05859336256980896f, 0.09324164688587189f, 0.024752119556069374f, -0.17684149742126465f, -0.01195433922111988f, -0.36327964067459106f, -0.02110402099788189f, -0.10566067695617676f, -0.011688381433486938f, -0.32774269580841064f, 0.18721966445446014f, -0.2765149772167206f, 0.3077263832092285f, 0.3927241265773773f, 0.0767759159207344f, -0.36460262537002563f, 0.22760170698165894f, -0.13691525161266327f, 0.0481606088578701f, -2.485175371170044f, -0.29722097516059875f, 0.05890717729926109f, -0.13076816499233246f, -0.2323378026485443f, -0.1550142616033554f, 0.10600852966308594f, 0.43666717410087585f, -0.2657608389854431f, 0.2617242634296417f, 0.6685993671417236f, -0.07042208313941956f, 0.06511849164962769f, 0.14820799231529236f, -0.22921934723854065f, -0.08394355326890945f, -0.36610645055770874f, 0.7248112559318542f, 0.08630798757076263f, 0.1833522766828537f, 0.3264017403125763f, 0.1357041448354721f, -0.23750585317611694f, 0.31579819321632385f, -0.22740477323532104f, 0.6308147311210632f, -0.33479228615760803f, -0.14153000712394714f, -0.09964623302221298f, 0.023162037134170532f, 0.0632765144109726f, 0.11329929530620575f, -0.21431788802146912f, 0.11217788606882095f, 0.11943700909614563f, -0.029149232432246208f, 0.6865626573562622f, 0.12093765288591385f, -0.14822232723236084f, -0.00949925184249878f, -0.08125478774309158f, -0.1833638846874237f, 0.13258959352970123f, 0.0563725084066391f, 0.12668640911579132f, -0.19960778951644897f, 0.029031628742814064f, 0.1288122534751892f, 0.13357019424438477f, 0.20544351637363434f, -0.04607752338051796f, 0.05233001336455345f, 0.11730803549289703f, 0.18865029513835907f, -0.16137798130512238f, -0.1719335913658142f, -0.08312036097049713f, 0.24404388666152954f, -0.20514191687107086f, -0.1948017030954361f, 0.03438667580485344f, -0.04600770026445389f, -0.15987055003643036f, 0.046526987105607986f, -0.00020355283049866557f, 0.13128352165222168f, -0.09756766259670258f, -0.28561484813690186f, 0.021823719143867493f, -0.011166533455252647f, -0.24695853888988495f, -0.08591731637716293f, -0.06908215582370758f, -0.057747676968574524f, -0.051860615611076355f, -0.1089210957288742f, 0.32120928168296814f, -0.01729222573339939f, 0.001397678512148559f, 0.0042738295160233974f, -0.055726781487464905f, -0.22269479930400848f, -0.018551409244537354f, -0.017670070752501488f, -0.024923594668507576f, -0.09224426746368408f, -0.06172461435198784f, 0.17628686130046844f, -0.13749191164970398f, 0.0007441490888595581f, 0.1226508691906929f, 0.18462423980236053f, 0.23895135521888733f, -0.1102876290678978f, 0.06468963623046875f, 0.19730162620544434f, -0.31325849890708923f, -0.05755309760570526f, -0.2185925990343094f, 0.329097181558609f, 0.17149460315704346f, 0.03258707746863365f, 0.27486300468444824f, 0.05326090008020401f, -0.1628740131855011f, -0.11392482370138168f, 0.1455053836107254f, 0.30763331055641174f, -0.18949265778064728f, -0.0365883968770504f, 0.21184226870536804f, 0.1226305440068245f, -0.11516731977462769f, -0.04247574135661125f, -0.28411540389060974f, -0.04826490208506584f, -0.06687073409557343f, -0.05688237026333809f, 0.04403890669345856f, -0.0033450559712946415f, -0.0307511854916811f, -0.0008954435470514f, -0.14633025228977203f, 0.1554824411869049f, -0.03074086271226406f, 0.39750415086746216f, 0.5258068442344666f, -0.3806869387626648f, -0.2643033564090729f, 0.11708661913871765f, 0.029939845204353333f, -0.05966922640800476f, 0.12164677679538727f, 0.0196380615234375f, -0.021832339465618134f, -0.04159627482295036f, -0.46030643582344055f, -0.1413457691669464f, 0.02601020038127899f, -0.17309817671775818f, 0.08685052394866943f, -0.09466761350631714f, 0.19475622475147247f, 0.05478464812040329f, -0.07290269434452057f, -0.08932513743638992f, -0.2429688274860382f, -0.01863057352602482f, -0.025622816756367683f, 0.11213146895170212f, -0.03444725647568703f, 0.25788673758506775f, 0.3961069881916046f, 0.24961957335472107f, -0.14647218585014343f, 0.15783008933067322f, 0.15017805993556976f, 0.2731240689754486f, -0.08092940598726273f, -0.08753158152103424f, 0.14815375208854675f, -0.12716297805309296f, 0.11414080858230591f, 0.04307222366333008f, -0.141035258769989f, -0.18237049877643585f, -0.07230745255947113f, -0.09801866859197617f, -0.06880232691764832f, 0.34761157631874084f, 0.03039492852985859f, -0.14193056523799896f, 0.11609327048063278f, 0.24701327085494995f, -0.13875187933444977f, 0.09061244130134583f, 0.4683089554309845f, -0.3738505244255066f, -0.19959934055805206f, 0.2669919431209564f, -0.14445993304252625f, -0.18163007497787476f, 0.013181731104850769f, -0.1892189085483551f, 0.26939383149147034f, 0.015935946255922318f, -0.4958185851573944f, -0.10825957357883453f, -0.020088449120521545f, 0.13878871500492096f, -0.19398988783359528f, 0.06762067973613739f, -0.08794785290956497f, 0.15042683482170105f, -0.24436421692371368f, -0.18654359877109528f, -0.26227816939353943f, -0.23616892099380493f, -0.21698325872421265f, 0.19387996196746826f, 0.25460803508758545f, -0.1362667828798294f, 0.05770263820886612f, -0.0117709431797266f, 0.0028580129146575928f, -0.23384204506874084f, -0.2217329740524292f, 0.14626002311706543f, -0.08865801990032196f, 0.2176763117313385f, 0.059215374290943146f, 0.12371933460235596f, -0.05731257423758507f, 0.05061422288417816f, 0.14108259975910187f, -0.2339242845773697f, 0.11912377178668976f, 0.04816669598221779f, 0.0598781555891037f, 0.046452607959508896f, 0.024007022380828857f, -0.019924530759453773f, -0.22660034894943237f, -0.20876431465148926f, 0.12013479322195053f, 0.21085578203201294f, 0.3564169406890869f, -0.1726454645395279f, 0.1439729481935501f, 0.04931751638650894f, -0.15429827570915222f, -0.11949019879102707f, -0.06961336731910706f, -0.09691090881824493f, -0.17829647660255432f, 0.1253344863653183f, -0.020381221547722816f, 0.11528009176254272f, -0.022887244820594788f, 0.22662903368473053f, 0.2005511075258255f, -0.009976863861083984f, 0.005355820991098881f, 0.33143508434295654f, -0.1868017017841339f, 0.20286738872528076f, -0.8292437195777893f, -0.19078069925308228f, -0.5007719397544861f, -0.17353850603103638f, 0.9160786271095276f, 0.41783642768859863f, 0.6858348250389099f, 0.08128782361745834f, 0.16823334991931915f, -0.08990902453660965f, -0.2438853681087494f, 1.1961182355880737f, -1.137591004371643f, -0.4434164762496948f, 0.7483536601066589f, -0.01605222001671791f, 0.8256779909133911f, 0.348898708820343f, -0.0526912659406662f, 0.18953199684619904f, 0.6823599338531494f, -0.9860671758651733f, -0.009947195649147034f, 0.06319361180067062f, 0.8982290029525757f, 0.07968749850988388f, 0.036074522882699966f, 1.0758150815963745f, -0.404694139957428f, 0.7695505023002625f, 0.37708261609077454f, -1.1516315937042236f, -0.3976307213306427f, -0.6928183436393738f, -0.07696330547332764f, -0.13991399109363556f, 0.011968255043029785f, -1.0688220262527466f, -0.2746722102165222f, 0.023229140788316727f, -0.10995156317949295f, 0.03659963980317116f, -0.11594089865684509f, -0.1695978343486786f, -0.30024394392967224f, -0.11544547230005264f, 0.21748200058937073f, -0.01945088990032673f, -0.3233701288700104f, 0.23475036025047302f, 0.41022080183029175f, -0.0005004131817258894f, -0.06849386543035507f, 0.24014852941036224f, 0.6981378197669983f, 0.11079313606023788f, 0.02244441583752632f, -0.12069423496723175f, 0.03357546031475067f, -0.011571517214179039f, -0.21671335399150848f, 0.29577648639678955f, 0.2853061854839325f, 0.4145536720752716f, 0.09031571447849274f, -0.2374333143234253f, -0.3745872974395752f, -0.20281124114990234f, -0.21282009780406952f, 0.04372144863009453f, -0.6359228491783142f, 0.012992102652788162f, 0.16622959077358246f, -0.7639066576957703f, -0.5540015697479248f, -0.24142567813396454f, -0.18100976943969727f, -0.17702776193618774f, 0.07761414349079132f, 0.05906303972005844f, -0.49976032972335815f, -0.15671145915985107f, -0.27518051862716675f, 0.03384498879313469f, -0.11636138707399368f, -0.03692731261253357f, -0.006481453776359558f, 0.5777007937431335f, 0.27832576632499695f, -0.21890132129192352f, 0.029798034578561783f, 0.07230839878320694f, -0.16034486889839172f, 0.0909406989812851f, 0.14734145998954773f, -0.13590744137763977f, -0.2527068257331848f, -0.10273479670286179f, 0.3888382911682129f, -0.08257871866226196f, -0.05687529966235161f, 0.23688483238220215f, -0.27175530791282654f, 0.09144792705774307f, -1.0720285177230835f, 0.055911723524332047f, 0.05248042941093445f, -0.2304142415523529f, -0.1343989372253418f, -0.0875234380364418f, 0.18640711903572083f, -0.6527100801467896f, 0.6332488059997559f, 0.6095614433288574f, 0.26312190294265747f, 0.09393477439880371f, -0.4889146089553833f, -0.2121579647064209f, 0.09972444921731949f, -0.18348167836666107f, -0.1172495186328888f, 1.302978515625f, 0.22422288358211517f, 0.4381880760192871f, -0.3958472013473511f, -0.04065149277448654f, 0.02406253106892109f, -0.5493494272232056f, 0.21212218701839447f, -0.11898624897003174f, -0.882924497127533f, -0.8164480328559875f, -0.49812349677085876f, 0.40730300545692444f, -0.15909028053283691f, 0.11036752164363861f, -0.23789481818675995f, 0.8329564929008484f, 0.3141106069087982f, 0.23219235241413116f, 0.8677405118942261f, 0.20197813212871552f, 0.16703258454799652f, -0.19843871891498566f, 0.296999454498291f, -0.18976065516471863f, 0.13595519959926605f, -0.032296016812324524f, 0.17656321823596954f, -0.17824602127075195f, -0.053283605724573135f, -0.11940357834100723f, 0.04631101340055466f, 0.10604751110076904f, -0.06144854426383972f, 0.2550502121448517f, -0.10201701521873474f, 0.01157812774181366f, 0.012288615107536316f, 0.18350651860237122f, 0.16644267737865448f, 0.09417841583490372f, 0.17871379852294922f, 0.09851905703544617f, -0.20386900007724762f, 0.03281472995877266f, 0.24642883241176605f, 0.17975249886512756f, -0.12504638731479645f, -0.12028282880783081f, -0.0445038266479969f, -0.1335979402065277f, -0.10388404130935669f, -0.09551212191581726f, 0.19620449841022491f, 0.0388157032430172f, -0.21578127145767212f, 0.2052348554134369f, 0.06179569289088249f, -0.1410447359085083f, -0.11957039684057236f, 0.23431572318077087f, 0.049053359776735306f, 0.193186953663826f, -0.1802746057510376f, 0.07742850482463837f, -0.1710430383682251f, 0.191076397895813f, 0.04078948497772217f, -0.26924899220466614f, 0.19074219465255737f, 0.0070707304403185844f, -0.11255224049091339f, -0.06439775228500366f, 0.14404413104057312f, 0.20692874491214752f, 0.147122323513031f, -0.12554743885993958f, -0.016253503039479256f, -0.22509561479091644f, -0.14372918009757996f, 0.12658648192882538f, -0.1726866215467453f, 0.005774646066129208f, -0.07741409540176392f, 0.20406271517276764f, 0.35742515325546265f, 0.17123354971408844f, 0.10327266156673431f, -0.014266547746956348f, -0.2280551791191101f, -0.12590163946151733f, 0.20992319285869598f, -0.04891575127840042f, 0.059976279735565186f, 0.19990220665931702f, 0.07818134129047394f, -0.13300178945064545f, 0.19342947006225586f, 0.027983522042632103f, -0.21237517893314362f, -0.2732062339782715f, 0.08494515717029572f, -0.29021716117858887f, 0.19487373530864716f, 0.0637330561876297f, -0.16728682816028595f, 0.060748230665922165f, 0.17317654192447662f, -0.1862325519323349f, -0.023505041375756264f, -0.5375364422798157f, -0.3290613889694214f, 0.25541070103645325f, 0.021526440978050232f, 0.004413425922393799f, 0.22770996391773224f, 0.23918166756629944f, 0.23395392298698425f, -0.25540998578071594f, -0.029893701896071434f, -0.0980357825756073f, 0.04461483657360077f, -0.1093982458114624f, 0.22682227194309235f, 0.17668594419956207f, 0.016991835087537766f, -0.08567273616790771f, -0.12839679419994354f, 0.13435988128185272f, 0.15393655002117157f, 0.03855485841631889f, -0.083380788564682f, -0.17638464272022247f, 0.0331353135406971f, 0.07162471115589142f, 0.14222678542137146f, -0.2340274304151535f, -0.14340707659721375f, 0.1514919251203537f, -0.2643135190010071f, -0.04677717387676239f, -0.11724551767110825f, -0.23884417116641998f, -0.09940259158611298f, 0.0671001598238945f, 0.02676081843674183f, -0.21721166372299194f, 0.12403668463230133f, -0.175596684217453f, -0.12450776249170303f, -0.27872979640960693f, 0.1481228917837143f, -0.1517162024974823f, 0.3832818269729614f, -0.13614381849765778f, 0.05545423552393913f, 0.2635045349597931f, 0.2970370352268219f, 0.15649868547916412f, -0.23659750819206238f, -0.5978516340255737f, 0.06646840274333954f, 0.16453902423381805f, -0.22950094938278198f, 0.10376845300197601f, -0.2021142840385437f, 0.2028357833623886f, 0.22904695570468903f, -0.044190663844347f, 0.04626167565584183f, 0.2105342596769333f, -0.09579317271709442f, 0.019806310534477234f, 0.09855276346206665f, -0.07214555144309998f, 0.2545616328716278f, -0.23422956466674805f, 0.01454147882759571f, 0.06972809135913849f, 0.1884540319442749f, 0.15809939801692963f, 0.05261357128620148f, 0.2085707187652588f, -0.19881126284599304f, -0.07074152678251266f, 0.19336268305778503f, 0.15035951137542725f, 0.20091412961483002f, 0.08389023691415787f, -0.07657916098833084f, -0.09222345054149628f, 0.09391739964485168f, -0.08413895964622498f, -0.00558493472635746f, 0.1680918186903f, 0.21865856647491455f, -0.16392982006072998f, -0.15687283873558044f, 0.017391053959727287f, 0.09316249191761017f, -0.13389967381954193f, 0.11627630889415741f, -0.07209683209657669f, 0.13621778786182404f, -0.10448729246854782f, 0.062040507793426514f, -0.01100498903542757f, 0.14480489492416382f, -0.18518510460853577f, 0.21940012276172638f, 0.16790175437927246f, -0.01089821383357048f, -0.22422093152999878f, -0.1572171449661255f, 0.038320377469062805f, 0.06516186892986298f, -0.02836363948881626f, -0.02168564312160015f, -0.14000137150287628f, 0.11937268823385239f, 0.13570593297481537f, 0.04690049588680267f, -0.22658218443393707f, -0.12752972543239594f, -0.07894505560398102f, 0.6385143995285034f, 0.3469257950782776f, -0.728371798992157f, -0.14149978756904602f, -0.3746154010295868f, -0.19944728910923004f, -0.34330350160598755f, 0.06976800411939621f, 0.2614383101463318f, -0.22304083406925201f, 0.6410795450210571f, -0.20993198454380035f, -0.0295274555683136f, -0.15559135377407074f, -0.1818830817937851f, 1.2722194194793701f, -0.9757624268531799f, -0.5185434222221375f, 0.1101166233420372f, -0.058479536324739456f, 0.577478289604187f, -0.35501012206077576f, -0.2638828754425049f, -0.1182321310043335f, 0.40694230794906616f, -1.6807031631469727f, -0.021571531891822815f, -0.2965875267982483f, 1.3768187761306763f, 0.24373099207878113f, -0.06424599885940552f, 0.6906570196151733f, -0.9443091154098511f, 0.4436379671096802f, -0.7334133982658386f, 0.9849944710731506f, 0.08886652439832687f, -0.16468089818954468f, -0.14927659928798676f, -0.21308022737503052f, 0.19263334572315216f, -0.3095589280128479f, 0.26156729459762573f, -0.1826624870300293f, -0.09209873527288437f, 0.024712970480322838f, -0.16145841777324677f, 0.11960183084011078f, -0.7617147564888f, 0.21382780373096466f, -0.09107022732496262f, 0.44303184747695923f, -0.0024880494456738234f, -0.1294105499982834f, 0.6470215916633606f, 0.09959324449300766f, 0.4597770571708679f, 0.07664194703102112f, 0.862464427947998f, -0.45247596502304077f, -0.40882304310798645f, 0.08864010870456696f, 0.20973362028598785f, -0.09440726786851883f, 0.21903374791145325f, 0.30308160185813904f, -0.06698871403932571f, 0.21499963104724884f, 0.7349646091461182f, -0.03244348242878914f, 0.1274615228176117f, 0.0845736712217331f, -0.10582532733678818f, -0.05305688828229904f, 0.04296158626675606f, -0.5449355244636536f, -0.057589977979660034f, -0.29639461636543274f, -0.5946453213691711f, -0.0952162891626358f, -0.09845679998397827f, 0.015792101621627808f, -0.35489845275878906f, -0.4533786475658417f, 0.4689527451992035f, 0.7278085350990295f, 0.12395443022251129f, -0.19133329391479492f, -0.07180874049663544f, 0.23083443939685822f, -0.07886166870594025f, 0.28958430886268616f, -0.05251942202448845f, 0.06101960316300392f, 0.20356465876102448f, 0.21341435611248016f, 0.10289977490901947f, -0.04458828270435333f, -0.09558487683534622f, 0.07762794196605682f, -0.27912580966949463f, 0.01219464186578989f, 0.3829631209373474f, 0.1868848353624344f, 0.1503361165523529f, -0.15506267547607422f, 0.6603648066520691f, 0.1580546498298645f, 2.8753931522369385f, -0.43987756967544556f, -0.6274606585502625f, -0.10912713408470154f, 0.01236589252948761f, -0.11547786742448807f, 0.21982441842556f, -0.12067820876836777f, 0.4968632459640503f, 0.4734759032726288f, -0.4062865078449249f, 0.21373963356018066f, -0.3005669116973877f, 0.1997540295124054f, 0.23057463765144348f, -0.19016239047050476f, 1.1699050664901733f, 0.9067497253417969f, 0.02780364453792572f, -0.8171634674072266f, -0.7352147698402405f, 0.39004385471343994f, 0.055478453636169434f, -0.3422768712043762f, 0.07078887522220612f, -0.7078682780265808f, -0.6708579063415527f, 0.25071850419044495f, 0.417677104473114f, -0.24778372049331665f, 0.06272090971469879f, -0.07469181716442108f, 0.12223617732524872f, 0.4377426505088806f, -0.27006828784942627f, -0.16820111870765686f, -1.7391126155853271f, -0.1811215877532959f, -0.0855412632226944f, -0.19184376299381256f, 0.1894395798444748f, -0.016874954104423523f, 0.05937404930591583f, 0.17979539930820465f, 0.19712699949741364f, -0.12260125577449799f, -0.1959582269191742f, -0.0604761578142643f, 0.12541703879833221f, 0.11110850423574448f, -0.38040319085121155f, 0.2126682847738266f, -0.039983056485652924f, -0.13449256122112274f, 0.028855696320533752f, 0.03340331092476845f, -0.043526459485292435f, 0.1324712038040161f, 0.25516462326049805f, 0.04478200152516365f, -0.15476030111312866f, 0.05474141240119934f, 0.07043273746967316f, 0.15593962371349335f, -0.20443150401115417f, -0.15264171361923218f, 0.15979322791099548f, 0.12610022723674774f, 0.026176676154136658f, -0.011864335276186466f, -0.07196665555238724f, -0.2283843457698822f, 0.20347397029399872f, -0.05967696011066437f, 0.022953027859330177f, -0.08089698106050491f, 0.37458285689353943f, -0.19887976348400116f, 0.17584964632987976f, -0.08892951160669327f, -0.134394109249115f, -0.18272370100021362f, -0.053096458315849304f, -0.017795538529753685f, 0.07453227788209915f, -0.21124869585037231f, 0.2258760631084442f, -0.14010900259017944f, 0.0014204084873199463f, 0.107794389128685f, 0.04619073122739792f, -0.012975499033927917f, 0.02550865337252617f, 0.07012183219194412f, 0.045249614864587784f, -0.1257905662059784f, 0.07554807513952255f, -0.1266876757144928f, 0.04692797362804413f, -0.09847709536552429f, -0.3575994670391083f, -0.06773179024457932f, 0.09198924154043198f, 0.1862175315618515f, 0.09051613509654999f, -0.02298996038734913f, -0.11963003128767014f, 0.0909942165017128f, -0.0712263435125351f, -0.14438173174858093f, -0.2756497263908386f, 0.08477902412414551f, 0.04151434078812599f, 0.2403474748134613f, -0.03675243631005287f, -0.02511584758758545f, 0.03079027310013771f, -0.2994835376739502f, -0.13836175203323364f, -0.26830217242240906f, 0.010880640707910061f, -0.033681802451610565f, 0.0386713370680809f, 0.3202648162841797f, -0.13421809673309326f, -0.020220283418893814f, -0.12699942290782928f, -0.18757256865501404f, -0.06816212832927704f, -0.23957209289073944f, -0.017054423689842224f, -0.2049763798713684f, -0.18420282006263733f, -0.08461553603410721f, 0.1681041568517685f, 0.09308516979217529f, -0.13580092787742615f, -0.131780743598938f, -0.04942651093006134f, -0.09741370379924774f, -0.09643357247114182f, 0.10695408284664154f, -0.25478431582450867f, -0.034768246114254f, 0.12843720614910126f, 0.03700054809451103f, -0.020085670053958893f, -0.04827667400240898f, -0.22892431914806366f, -0.1580907106399536f, -0.47402068972587585f, -0.04681267589330673f, -0.004102103412151337f, 0.07914570719003677f, 0.13663192093372345f, -0.21245652437210083f, -0.2284569889307022f, 0.33521756529808044f, -0.0874195396900177f, -0.05197610333561897f, -0.021510662510991096f, -0.05957382917404175f, 0.195152148604393f, 0.11710285395383835f, 0.23110127449035645f, -0.04258324205875397f, -0.05132393166422844f, -0.2766936421394348f, 0.22669465839862823f, -0.038342226296663284f, 0.1942421942949295f, 0.003743597539141774f, -0.2477327436208725f, -0.001227491069585085f, 0.031208040192723274f, -0.14369484782218933f, 0.14894932508468628f, -0.40918585658073425f, -0.11474968492984772f, -0.23687388002872467f, 0.04778839647769928f, -0.12646237015724182f, 0.18375499546527863f, -0.2668924331665039f, 0.05813084915280342f, -0.2535789906978607f, -0.2641831636428833f, -0.03925545513629913f, 0.026109859347343445f, 0.0007005929946899414f, 0.10051753371953964f, -0.09751717746257782f, -0.18432720005512238f, 0.08273743838071823f, 0.13570569455623627f, 0.1207532286643982f, 0.04465512931346893f, -0.15191173553466797f, -0.18509940803050995f, -0.01001735869795084f, -0.2733522355556488f, 0.1433386653661728f, -0.2115914225578308f, 0.09855703264474869f, -0.2353271245956421f, -0.13742133975028992f, -0.043240346014499664f, 0.08808787167072296f, 0.12731878459453583f, 0.21979834139347076f, -0.3380434215068817f, -0.24986152350902557f, 0.11095874011516571f, -0.00237983837723732f, -0.023076742887496948f, -0.12428025901317596f, -0.002401690697297454f, 0.043989408761262894f, 0.08354781568050385f, -0.16770614683628082f, -0.056916672736406326f, 0.12176154553890228f, -0.19244948029518127f, -0.13607776165008545f, 0.04605124145746231f, 0.04790002107620239f, 0.08700704574584961f, -0.03465703874826431f, -0.22059538960456848f, -0.07432664185762405f, 0.1971708983182907f, -0.015464350581169128f, 0.12243296205997467f, -0.05354605242609978f, -0.19835792481899261f, 0.15979671478271484f, 0.09188183397054672f, 0.10176952183246613f, 0.14714764058589935f, -0.027407929301261902f, 0.06044796109199524f, 0.15574006736278534f, -0.10674715042114258f, -0.09691064804792404f, -0.6095819473266602f, 0.02220168150961399f, -0.6324911713600159f, 0.1773325502872467f, -0.6330461502075195f, -0.03896162658929825f, -1.0203360319137573f, 0.4295532703399658f, 0.938155472278595f, -0.17106135189533234f, 0.13280950486660004f, -0.21990808844566345f, -0.39449915289878845f, 0.3817278742790222f, -0.7096916437149048f, -0.6353418827056885f, -0.9522265195846558f, -0.23123836517333984f, 0.4922879636287689f, -0.10147959738969803f, 0.15455147624015808f, 0.021740572527050972f, 0.5109735131263733f, -0.5778495669364929f, 0.027754440903663635f, -0.279198557138443f, 0.33015426993370056f, -0.22614431381225586f, -0.22872813045978546f, 0.5771484375f, 1.109062671661377f, 0.028507569804787636f, 0.929686963558197f, -1.3385554552078247f, -0.49183592200279236f, 0.02934029884636402f, -0.17023801803588867f, -0.07083484530448914f, 0.15685458481311798f, -0.6690135598182678f, 0.1413452923297882f, -0.023349272087216377f, 0.008770805783569813f, -0.09772785753011703f, -0.22048792243003845f, -0.159623920917511f, -0.05835023894906044f, -0.1731894612312317f, -0.46907734870910645f, 0.21947741508483887f, 0.16203977167606354f, 0.05004141107201576f, -0.15849187970161438f, -0.12655393779277802f, -0.10003319382667542f, -0.7704128623008728f, 0.24209439754486084f, 0.004807624500244856f, -0.14381296932697296f, -0.06324789673089981f, 0.09837965667247772f, -0.11535442620515823f, 0.3540904223918915f, -0.43386173248291016f, 0.03766806051135063f, 0.37349826097488403f, 1.0410557985305786f, 0.1589876413345337f, 0.31672751903533936f, 0.07545498013496399f, 0.5549803972244263f, 0.1237286701798439f, -0.02635946124792099f, -0.40712547302246094f, 0.2018728107213974f, -0.3886808156967163f, -0.0028110097628086805f, 0.41844597458839417f, -0.20944814383983612f, -0.04065725579857826f, 0.3277812898159027f, -0.026649894192814827f, -0.13470935821533203f, -1.398200511932373f, -0.177712544798851f, -0.5922678709030151f, -0.13389115035533905f, 0.15495438873767853f, 0.07575021684169769f, -0.321198970079422f, -0.25285977125167847f, -0.004325758665800095f, 0.528106153011322f, -0.08981147408485413f, -0.07675819098949432f, -0.12542687356472015f, 0.18465863168239594f, -0.0940864235162735f, 0.14872199296951294f, 0.4592965543270111f, 0.1139223575592041f, -0.05862993374466896f, 0.30419066548347473f, 0.08667550981044769f, -0.005200637504458427f, 0.22002634406089783f, -1.1241170167922974f, -0.46174517273902893f, 0.32906198501586914f, -0.11246855556964874f, -0.0065560489892959595f, -0.06597502529621124f, 0.03950810059905052f, 0.06088506802916527f, -0.4478908181190491f, -0.19897045195102692f, 0.5344319939613342f, -0.07457873970270157f, 0.3493936359882355f, -0.2815304398536682f, 0.05056380107998848f, 0.22877991199493408f, -0.718798041343689f, 0.559079647064209f, -0.1807461529970169f, -0.22807414829730988f, 0.04030561074614525f, 0.6226460337638855f, 0.21518179774284363f, 0.5227566957473755f, -0.2653696835041046f, 0.1437704712152481f, -0.41565102338790894f, 0.6381863355636597f, -0.21712930500507355f, 0.127910315990448f, -0.14718526601791382f, -0.11733640730381012f, 0.00609317421913147f, -0.0598369836807251f, 0.1989724040031433f, 0.15966132283210754f, 1.538482666015625f, 0.1225908175110817f, -0.040195614099502563f, -0.07462999224662781f, -0.362527072429657f, -0.1602858304977417f, 0.13384610414505005f, -0.19939205050468445f, -0.1453472226858139f, 0.13752257823944092f, 0.16077348589897156f, -0.17239812016487122f, -0.10690926015377045f, 0.0016203031409531832f, 0.21817871928215027f, -0.1449338048696518f, 0.12630166113376617f, -0.022895295172929764f, -0.056103989481925964f, 0.04419427365064621f, 0.21371899545192719f, 0.06168922409415245f, 0.0030741191003471613f, 0.15873421728610992f, -0.142067089676857f, 0.04033374786376953f, -0.03510574251413345f, 0.2399502396583557f, 0.1179853081703186f, -0.18771293759346008f, 0.13923142850399017f, 0.23480434715747833f, -0.019926607608795166f, -0.25993064045906067f, 0.18021629750728607f, 0.02918151021003723f, -0.19979499280452728f, -0.11558768153190613f, -0.12796901166439056f, 0.21247020363807678f, -0.13212043046951294f, 0.16219085454940796f, 0.058016132563352585f, -0.07437564432621002f, -0.233805850148201f, 0.21902848780155182f, -0.23222339153289795f, -0.15962263941764832f, 0.07066739350557327f, 0.16606375575065613f, 0.024108389392495155f, -0.04280047118663788f, 0.18051575124263763f, -0.14208197593688965f, -0.16089032590389252f, -0.20450495183467865f, 0.02363562025129795f, -0.12030068039894104f, -0.2019614279270172f, -0.07296828180551529f, -0.3699186146259308f, 0.19774390757083893f, -0.17131367325782776f, 0.1080048680305481f, 0.38016608357429504f, 0.12722353637218475f, 0.23734119534492493f, -0.22823777794837952f, -0.09398092329502106f, 0.08679986000061035f, 0.17008227109909058f, 0.07116761058568954f, -0.48821383714675903f, -0.21382910013198853f, 0.08382716029882431f, -0.02161952294409275f, 0.05452285706996918f, 0.2168794870376587f, 0.1387263834476471f, -0.11501487344503403f, 0.03744218125939369f, -0.07200194895267487f, 0.12850315868854523f, -0.03091294877231121f, 0.12946824729442596f, -0.04497389495372772f, 0.0669073760509491f, 0.04793667793273926f, -0.2075941264629364f, 0.3914099931716919f, 0.06812863051891327f, 0.38188785314559937f, 0.19678239524364471f, -0.23351316154003143f, 0.051365479826927185f, -0.13301846385002136f, -0.19153523445129395f, -0.3266039490699768f, -0.3122481405735016f, 0.07840677350759506f, 0.17314989864826202f, -0.09058617800474167f, -0.15595073997974396f, -0.21844950318336487f, -0.17195619642734528f, -0.14756502211093903f, 0.2269492894411087f, 0.2565995752811432f, 0.05200865864753723f, 0.10601502656936646f, -0.09303785115480423f, -0.10972920060157776f, 0.004214633721858263f, -0.07332845032215118f, 0.3683660626411438f, 0.06742805987596512f, -0.14289811253547668f, -0.08908235281705856f, -0.09082753956317902f, -0.2173926681280136f, -0.07926525175571442f, 0.23636706173419952f, -0.19189760088920593f, -0.1331082582473755f, -0.07580500096082687f, -0.08379188179969788f, 0.028938669711351395f, 0.05144631490111351f, -0.045135512948036194f, -0.21599264442920685f, -0.02600013092160225f, 0.14122232794761658f, -0.07722820341587067f, 0.12377125024795532f, 0.09579834342002869f, 0.22777222096920013f, -0.1380186378955841f, -0.018993446603417397f, -0.2627040445804596f, 0.3645036518573761f, 0.12480451911687851f, 0.013186339288949966f, 0.16303569078445435f, -0.31830111145973206f, -0.20738627016544342f, -0.1788967400789261f, -0.08941127359867096f, -0.2759569585323334f, -0.09912893921136856f, 0.00447007967159152f, 0.14242669939994812f, -0.051234353333711624f, 0.1824287325143814f, 0.05040358006954193f, -0.048434801399707794f, -0.07476584613323212f, 0.08936558663845062f, -0.0591890811920166f, 0.2323227822780609f, 0.1381259262561798f, -0.012441081926226616f, 0.16090932488441467f, 0.2015790194272995f, 0.1312958002090454f, 0.2149290293455124f, 0.18966269493103027f, -0.08289748430252075f, -0.0010196920484304428f, -0.194570854306221f, 0.05237352102994919f, -0.2190946787595749f, 0.15522855520248413f, 0.0707649439573288f, 0.04630657285451889f, -0.05968764051795006f, 0.13732899725437164f, 0.1813257932662964f, 0.10869906842708588f, 0.09828508645296097f, -0.24535199999809265f, 0.31174057722091675f, -0.1347423791885376f, 0.037222906947135925f, 0.07892723381519318f, 0.23839062452316284f, 0.024057354778051376f, 0.002162324730306864f, -0.13963402807712555f, -0.2312193065881729f, 0.04599031060934067f, -0.016385503113269806f, 0.3891538381576538f, -0.024888765066862106f, -0.05270631983876228f, 0.1031235009431839f, 0.040048256516456604f, 0.0821308046579361f, -0.3013598322868347f, -0.17896917462348938f, 0.20310503244400024f, 0.029844528064131737f, 0.07282938063144684f, 0.20485873520374298f, -0.12339436262845993f, -0.2518714964389801f, -0.11519912630319595f, 0.15702617168426514f, 0.2847342789173126f, -0.697546124458313f, 0.18770597875118256f, -1.1727070808410645f, -0.21725837886333466f, -0.5718966126441956f, -0.901395320892334f, 1.9651943445205688f, 0.91896653175354f, 1.9143309593200684f, 0.08946722000837326f, 0.23334060609340668f, -0.02996475249528885f, -0.11887161433696747f, 1.7577416896820068f, -1.1433526277542114f, -1.4538495540618896f, -0.9748229384422302f, 0.18909381330013275f, 1.1751632690429688f, 0.4561897814273834f, 0.14735756814479828f, 0.02877248451113701f, 1.398005485534668f, -0.6456052660942078f, -0.15521758794784546f, -0.4731290936470032f, 1.68649160861969f, 0.2072269171476364f, -0.17017069458961487f, 1.440529704093933f, -0.5163909792900085f, 1.3835015296936035f, -1.3125889301300049f, -0.5343472361564636f, 0.49964407086372375f, -0.796599268913269f, -0.021571367979049683f, -0.19045040011405945f, -0.11608503013849258f, -1.3213551044464111f, -1.1328742504119873f, -0.1574830412864685f, -0.32710009813308716f, -0.2372179925441742f, 0.019718900322914124f, 0.03947596251964569f, -1.0600858926773071f, 0.11430446803569794f, -0.2284770905971527f, -0.19822528958320618f, -0.1014794260263443f, -0.078041672706604f, 0.15864546597003937f, -0.009182379581034184f, 0.31206265091896057f, -0.1519559621810913f, 0.38745036721229553f, 0.20341189205646515f, -0.16301605105400085f, 0.07341873645782471f, -0.10206174850463867f, 0.058071404695510864f, -0.07906758040189743f, 0.21600833535194397f, 0.02424587495625019f, -0.18414463102817535f, -0.31280815601348877f, 0.16039201617240906f, -0.21336328983306885f, 0.011093518696725368f, -0.2304469645023346f, -0.06275474280118942f, 0.5691364407539368f, -0.6846041083335876f, -0.035970330238342285f, -0.6097065210342407f, -0.03213783726096153f, 0.38266366720199585f, -0.08218742161989212f, -0.2580825686454773f, -0.05764446780085564f, 0.24619878828525543f, -0.2294059544801712f, 0.6871559619903564f, 0.26806628704071045f, -0.022298432886600494f, -0.051705822348594666f, 0.011147573590278625f, -0.19627194106578827f, -0.015421350486576557f, -0.10964838415384293f, -0.12324632704257965f, -0.06446439772844315f, 0.023008808493614197f, -0.007079482078552246f, -0.05983157455921173f, 0.14377398788928986f, 0.19910980761051178f, 0.10396517813205719f, -0.8562960028648376f, 0.1724504977464676f, -0.08700381964445114f, -0.11338870972394943f, 0.15711943805217743f, -0.5035735368728638f, -0.11394242942333221f, -0.8683367967605591f, 0.5986929535865784f, 0.06404706835746765f, -0.07955420017242432f, -0.11234956979751587f, 0.20032185316085815f, -0.36284562945365906f, -0.9266860485076904f, 0.8866288065910339f, 0.21581913530826569f, 0.5918545722961426f, -0.06763492524623871f, -0.47223371267318726f, -0.46976056694984436f, 0.3768933117389679f, 0.19871658086776733f, -0.4250487685203552f, -0.2454204261302948f, -0.1568489521741867f, -0.22746281325817108f, -0.46697932481765747f, -0.41562315821647644f, 0.153124138712883f, -0.46542325615882874f, 0.6648125052452087f, -0.17764587700366974f, 0.751878023147583f, -2.36586856842041f, -0.4984363913536072f, 0.8042373657226562f, -0.11286796629428864f, -0.1244906559586525f, -0.17440730333328247f, 0.7900257110595703f, 0.26558855175971985f, -0.1497170329093933f, 1.1550201177597046f, 0.18462179601192474f, -0.01628372073173523f, -0.047169312834739685f, 0.8847172856330872f, -0.1250452995300293f, -0.10585921257734299f, 0.024648603051900864f, -0.1778438538312912f, 0.16020891070365906f, -0.024568183347582817f, -0.22790978848934174f, 0.23304055631160736f, -0.25008484721183777f, 0.10754159092903137f, -0.18785475194454193f, -0.05689848214387894f, -0.12496165186166763f, -0.0465693473815918f, 0.042428791522979736f, 0.010291068814694881f, -0.1918468028306961f, -0.07404584437608719f, -0.25480926036834717f, 0.021244939416646957f, 0.05959206074476242f, 0.14561927318572998f, 0.15424081683158875f, 0.04356435313820839f, -0.05370514839887619f, 0.1415875405073166f, -0.036016207188367844f, -0.12435933947563171f, 0.0011302233906462789f, -0.07075399905443192f, -0.2032325714826584f, 0.05909954011440277f, 0.11540669202804565f, 0.22350341081619263f, -0.15782548487186432f, -0.03304073587059975f, 0.22129499912261963f, 0.17358024418354034f, 0.15084132552146912f, -0.20923885703086853f, -0.18368811905384064f, -0.10144646465778351f, 0.13782192766666412f, 0.21239231526851654f, 0.12963534891605377f, -0.0346209742128849f, -0.07120173424482346f, -0.09496359527111053f, -0.030039384961128235f, 0.10125226527452469f, -0.08040165901184082f, 0.10659908503293991f, 0.24161331355571747f, -0.11009611189365387f, 0.21203787624835968f, 0.24921442568302155f, 0.11850934475660324f, 0.14036598801612854f, 0.014985792338848114f, 0.06297338753938675f, 0.013951233588159084f, 0.18611423671245575f, 0.0012207861291244626f, -0.12634921073913574f, 0.1234479546546936f, -0.14163555204868317f, 0.1984417885541916f, 0.030645843595266342f, 0.03714798390865326f, -0.1339282989501953f, 0.2106943428516388f, -0.2212931364774704f, -0.13441209495067596f, -0.15095527470111847f, -0.14021751284599304f, 0.18055622279644012f, 0.29806435108184814f, -0.016131818294525146f, -0.6456261873245239f, 0.3648678958415985f, 0.03539639338850975f, 0.017871292307972908f, -0.02852734737098217f, 0.169570654630661f, -0.046577587723731995f, -0.14722564816474915f, 0.19879107177257538f, -0.2238197773694992f, -0.10045505315065384f, 0.034737393260002136f, -0.12363980710506439f, 0.09064500033855438f, 0.08855245262384415f, -0.009730253368616104f, -0.16889257729053497f, -0.5178958773612976f, 0.18653206527233124f, 0.14369256794452667f, 0.022335931658744812f, 0.1068422794342041f, 0.10535697638988495f, 0.15911078453063965f, -0.18319198489189148f, -0.26833000779151917f, -0.05825943499803543f, 0.1828138679265976f, 0.20492766797542572f, -0.13659247756004333f, 0.06679627299308777f, 0.08385960012674332f, 0.10663269460201263f, 0.24264176189899445f, 0.11938193440437317f, -0.11068211495876312f, -0.21224015951156616f, 0.0834614485502243f, 0.21971148252487183f, -0.2801867723464966f, 0.06021524965763092f, -0.2808004915714264f, 0.13883377611637115f, -0.07398499548435211f, 0.19006775319576263f, 0.03088916651904583f, -0.08851409703493118f, -0.130895733833313f, 0.3517712652683258f, -0.23548690974712372f, -0.8610162734985352f, 0.08418840169906616f, 0.04719043895602226f, -0.04028497263789177f, 0.03604256734251976f, -0.002009765477851033f, -0.19233964383602142f, -0.14800429344177246f, -0.0010199284879490733f, 0.13236507773399353f, 0.07520409673452377f, 0.1092831939458847f, 0.07401810586452484f, 0.22447864711284637f, -0.00357259763404727f, 0.17989440262317657f, 0.08109761774539948f, -0.23296204209327698f, -0.02648920565843582f, 0.10883413255214691f, 0.19570203125476837f, 0.16095200181007385f, -0.06152494251728058f, 0.18715009093284607f, -0.22493292391300201f, 0.11232249438762665f, -0.051400382071733475f, 0.10760613530874252f, -0.15181635320186615f, 0.14665015041828156f, -0.03111799620091915f, -0.17860914766788483f, -0.23377205431461334f, 0.013102352619171143f, -0.0352017842233181f, 0.21295736730098724f, 0.052677739411592484f, 0.0025969648268073797f, 0.019946355372667313f, 0.1254471242427826f, -0.1498216837644577f, -0.016343219205737114f, 0.022606726735830307f, 0.08285687863826752f, 0.24928738176822662f, 0.11228954046964645f, -0.2312426120042801f, 0.06022537872195244f, -0.0856267660856247f, 0.035774633288383484f, -0.04116299748420715f, -0.17418846487998962f, -0.21318481862545013f, 0.13145560026168823f, 0.02936234511435032f, -0.19493906199932098f, 0.12814532220363617f, 0.07562705129384995f, -0.04097272455692291f, 0.17646488547325134f, 0.17488804459571838f, -0.00047545135021209717f, 0.08676750957965851f, 0.10967867076396942f, -0.12565653026103973f, 0.053881607949733734f, -0.20313148200511932f, 0.08879602700471878f, -0.013298745267093182f, 0.06670849025249481f, 0.18195165693759918f, 0.22040113806724548f, -0.22172534465789795f, 0.14563220739364624f, 0.285765141248703f, -0.27040520310401917f, 0.09031692892313004f, -1.0923691987991333f, -0.09677697718143463f, -0.29990315437316895f, -0.9275249242782593f, -0.0721726194024086f, 0.9319435954093933f, 1.2175410985946655f, 0.158789724111557f, -0.16485819220542908f, -0.026492983102798462f, -0.28919363021850586f, -0.20298007130622864f, -0.855434000492096f, -1.2652779817581177f, -0.7942503094673157f, 0.03324781358242035f, 1.473137617111206f, -0.20968666672706604f, 0.752037525177002f, -0.12959644198417664f, 0.5354571342468262f, 0.7109792232513428f, 0.07820026576519012f, -0.5189738273620605f, 1.2355817556381226f, 0.16604332625865936f, 0.1335403174161911f, 1.1031001806259155f, 0.5979430675506592f, 0.5090978145599365f, -0.9124712347984314f, -1.273644208908081f, -0.42352059483528137f, -0.05873534083366394f, -0.11415745317935944f, 0.14542438089847565f, 0.10798774659633636f, -1.3554104566574097f, -0.4713202714920044f, -0.06245146319270134f, -0.2627663016319275f, -0.16719704866409302f, 0.037050530314445496f, 0.08633039891719818f, -0.2982281446456909f, 0.06445606052875519f, -0.0793713852763176f, 0.3348563611507416f, -0.3446061909198761f, 0.06500023603439331f, -0.18558162450790405f, -0.14536114037036896f, -0.24430596828460693f, -0.171263188123703f, -0.31230077147483826f, 0.012254289351403713f, 0.319324791431427f, 0.022892555221915245f, 0.2348046451807022f, -0.03818386048078537f, 0.026165006682276726f, 0.6623498201370239f, -0.4671224355697632f, 0.02460380829870701f, 0.05965061113238335f, -0.16574189066886902f, 0.34031322598457336f, 0.22464203834533691f, 0.15006551146507263f, 0.030309027060866356f, 0.13532628118991852f, -1.1614238023757935f, -0.029142707586288452f, -0.09807119518518448f, -0.667732834815979f, -0.8897631168365479f, -0.0005291286506690085f, 0.5543095469474792f, -0.37385329604148865f, 0.5020674467086792f, 1.1425238847732544f, 0.6292218565940857f, 0.13245929777622223f, -0.1499265432357788f, -0.21315403282642365f, -0.21612027287483215f, -0.06564885377883911f, -0.6584849953651428f, -0.2909663915634155f, -0.17073991894721985f, -0.3059318959712982f, 0.16351284086704254f, 0.15078063309192657f, -0.11185215413570404f, -0.3996706008911133f, -0.03611747920513153f, -0.7197244763374329f, -0.24854518473148346f, 0.6906940937042236f, -0.1856650561094284f, 0.20450428128242493f, -0.04372689500451088f, 0.27566811442375183f, 0.022045984864234924f, 0.4984823167324066f, -0.2514045238494873f, -0.8323976397514343f, -0.11523140221834183f, -0.21343135833740234f, -0.21846221387386322f, 0.05958154797554016f, -0.31712624430656433f, 0.6580268740653992f, 0.6094225645065308f, -0.023745812475681305f, 0.16612166166305542f, -0.4919692277908325f, 0.28773337602615356f, 0.183349147439003f, -0.21510666608810425f, 0.43014684319496155f, 0.15894454717636108f, 0.026223942637443542f, -1.2197909355163574f, -0.6682916283607483f, -0.10707064718008041f, 0.1995684653520584f, -0.7494643926620483f, 0.1375882923603058f, -0.36026015877723694f, -0.512961208820343f, -1.5302708148956299f, -0.22535856068134308f, -0.11836706101894379f, 0.18348579108715057f, -0.16129204630851746f, -0.13040491938591003f, 0.6764176487922668f, 0.30968567728996277f, 0.019049109891057014f, 0.9970988631248474f, 0.19925612211227417f, -0.21410369873046875f, -0.13500021398067474f, 0.8209533095359802f, 0.0f, -0.03148762881755829f, -0.019530881196260452f, 0.027124589309096336f, -0.007377339527010918f, 0.06142409145832062f, -0.0046831099316477776f, 0.05208127945661545f, 0.028385985642671585f, 0.009584427811205387f, -0.05216900631785393f, -0.12013203650712967f, 0.00033088112832047045f, 0.0f, -0.018430255353450775f, 0.0261237770318985f, -0.09303681552410126f, 0.14109230041503906f, 0.06595800817012787f, 0.010783016681671143f, -0.013859002850949764f, -0.06252505630254745f, 0.021772213280200958f, -0.024675164371728897f, -0.007500958163291216f, -0.031851429492235184f, -0.00497789541259408f, 0.0f, 0.05604790896177292f, -0.12704017758369446f, 0.001791893970221281f, -0.01229953020811081f, -0.10112936794757843f, 0.014027072116732597f, -0.06941483169794083f, 0.13196569681167603f, 0.3031996190547943f, 0.02575019560754299f, -0.004048727918416262f, 0.0f, 0.0f, 0.0f, 0.07838834822177887f, -0.006879890337586403f, -0.022984379902482033f, 0.19085858762264252f, -0.02083503268659115f, 0.0f, 0.0f, 0.0318433940410614f, -0.2045651376247406f, 0.10721462965011597f, -0.2644084692001343f, -0.21921753883361816f, -0.1282719075679779f, -0.027420401573181152f, -0.1812923401594162f, 0.07749868929386139f, 0.19477301836013794f, 0.06137506291270256f, 0.2930620610713959f, -0.22060419619083405f, -0.1906532347202301f, -0.22907614707946777f, -0.18919505178928375f, 0.11519479006528854f, -0.03872966766357422f, -0.02189246565103531f, 0.1796761155128479f, -0.15371306240558624f, -0.06636402755975723f, 0.09977639466524124f, -0.19550713896751404f, 0.13229630887508392f, 0.2400435209274292f, 0.21520757675170898f, 0.17419862747192383f, 0.24738027155399323f, -0.04511818289756775f, 0.15891556441783905f, -0.23300614953041077f, -0.12395556271076202f, 0.1412716656923294f, -0.06322505325078964f, 0.15406198799610138f, 0.3362659811973572f, 0.2510609030723572f, -0.07137322425842285f, -0.23581595718860626f, 0.10650939494371414f, 0.08350848406553268f, -0.04822647571563721f, -0.10242960602045059f, -0.26560842990875244f, 0.09820348024368286f, 0.12623172998428345f, -0.1487896740436554f, 0.0064612082205712795f, -0.48408040404319763f, 0.17994087934494019f, 0.17348816990852356f, 0.039212070405483246f, 0.34207165241241455f, 0.23886638879776f, -0.484129399061203f, -0.164306178689003f, 0.8649232387542725f, -0.29766011238098145f, -0.04906827211380005f, -0.8889061808586121f, 0.13322517275810242f, 0.04665134847164154f, -0.011565374210476875f, -0.15241849422454834f, -0.04932171106338501f, -0.23131556808948517f, 0.10687895864248276f, 0.25784382224082947f, -0.16150294244289398f, 0.02246176265180111f, 0.28964459896087646f, -0.17338794469833374f, 0.0003298508236184716f, -0.1661626398563385f, 0.1913815587759018f, 0.13586515188217163f, 0.27270781993865967f, -0.1995425969362259f, 0.15464845299720764f, 0.06965282559394836f, 0.28830134868621826f, -0.0011245012283325195f, 0.24136674404144287f, -0.2872064411640167f, -0.3459210693836212f, -0.2816930413246155f, -0.05118450149893761f, 0.1582716554403305f, 0.28769350051879883f, 0.0015859671402722597f, 0.0004034966987092048f, 0.04851241409778595f, 0.07524421811103821f, 0.25312066078186035f, 0.15787900984287262f, 0.16310393810272217f, 0.3250971734523773f, -0.3025219142436981f, -0.4076290726661682f, 0.014124143868684769f, 0.3163595199584961f, 0.09611537307500839f, -0.03698292374610901f, 0.21668849885463715f, 0.3027813732624054f, 0.10513583570718765f, 0.022119948640465736f, 0.21495196223258972f, -0.08885712176561356f, -0.014648998156189919f, 0.28235360980033875f, -0.1594616323709488f, -0.019233491271734238f, 0.18208158016204834f, 0.6696181893348694f, -0.7771969437599182f, 0.019303184002637863f, -0.0505884513258934f, -0.16722902655601501f, -0.43345800042152405f, 0.19434045255184174f, -0.05492236092686653f, -0.2864153981208801f, 0.18733203411102295f, 0.01302917767316103f, 0.09131409227848053f, -0.292899489402771f, 0.043284520506858826f, -0.1791042536497116f, 0.21173347532749176f, -0.023965438827872276f, -0.33535683155059814f, 0.23388832807540894f, -0.03320276737213135f, 0.04694298282265663f, 0.24217946827411652f, -0.03668302670121193f, 0.23874583840370178f, -0.07035262882709503f, 0.273832231760025f, -0.07978776842355728f, 0.25557655096054077f, -0.08988654613494873f, 0.1300133615732193f, -0.14281170070171356f, 0.318659245967865f, 0.04789555072784424f, -0.012224460020661354f, -0.09291951358318329f, 0.06590774655342102f, 0.5485530495643616f, -0.2835789620876312f, -0.09834610670804977f, 0.03924671933054924f, -0.3621199429035187f, -0.09210304170846939f, -0.009943762794137001f, 1.274649977684021f, 0.20073406398296356f, -0.338695764541626f, 0.007624418940395117f, -0.14300182461738586f, -0.05972391366958618f, -0.15494251251220703f, -0.12550732493400574f, 0.1405602991580963f, 0.05187901854515076f, 0.10569649934768677f, 0.3726099729537964f, 0.16985128819942474f, 0.3200054466724396f, 0.9282514452934265f, -0.26166030764579773f, -1.0192725658416748f, 0.14192107319831848f, 0.17399679124355316f, -0.40105554461479187f, 0.15185151994228363f, 0.2512567341327667f, -0.016147654503583908f, -0.38754600286483765f, -0.25854769349098206f, 0.04306723549962044f, 0.264254629611969f, -0.2513236403465271f, 0.12074538320302963f, -0.12061509490013123f, 0.2716562747955322f, 0.16975122690200806f, -0.11389840394258499f, -0.09602132439613342f, 0.02815665863454342f, 0.04695383086800575f, -0.0013328921049833298f, -0.320525199174881f, 0.2666836082935333f, 0.3955022692680359f, -0.17362599074840546f, 0.05540012568235397f, 0.3850991725921631f, 0.2056199163198471f, 0.028518470004200935f, -0.1616649478673935f, 0.009212424047291279f, 0.4812840521335602f, 0.08473881334066391f, -0.45142075419425964f, 0.0553617924451828f, 0.15673451125621796f, -0.07921045273542404f, -1.0096700191497803f, 0.16778163611888885f, 0.48684239387512207f, 0.16313068568706512f, 0.46034717559814453f, -0.4207979142665863f, 0.10532022267580032f, -0.3100355267524719f, 0.48345422744750977f, 0.408522367477417f, 0.6085187196731567f, 0.015900736674666405f, -0.0862652137875557f, -0.2503662705421448f, -0.031381621956825256f, 0.022655252367258072f, -0.10229895263910294f, -0.06706077605485916f, -0.14792820811271667f, 0.062437959015369415f, 0.0830230712890625f, -0.3486372232437134f, 0.038604289293289185f, -0.2293083667755127f, -0.16036807000637054f, 0.056935906410217285f, -0.10651889443397522f, -0.14665816724300385f, -0.11214432120323181f, 0.30571722984313965f, 0.2204798460006714f, -0.3039710223674774f, 0.1729007363319397f, -0.17590177059173584f, 0.16681313514709473f, 0.309065580368042f, -0.20287533104419708f, -0.012187093496322632f, 0.21286040544509888f, 0.08773589134216309f, 0.057969629764556885f, 0.10413521528244019f, -0.10762946307659149f, 0.06698105484247208f, 0.11795533448457718f, -0.1682276874780655f, 0.043631184846162796f, 0.1869780421257019f, -0.1909831166267395f, 0.21598383784294128f, -0.11571274697780609f, -0.27053093910217285f, 0.2716246247291565f, 0.19879598915576935f, -0.09317082166671753f, -0.1712530255317688f, -0.19158783555030823f, 0.34039026498794556f, -0.28633224964141846f, 0.1089629977941513f, -0.9673851132392883f, 0.15736320614814758f, 0.004658219404518604f, 0.4454156458377838f, -1.282118797302246f, -0.45223575830459595f, 0.025320598855614662f, 0.27684685587882996f, 0.24103781580924988f, 0.09996319562196732f, 0.009213999845087528f, -0.04702219367027283f, -0.2593580484390259f, -0.28990885615348816f, -0.12274225056171417f, -0.21790021657943726f, 0.18129587173461914f, -0.29487496614456177f, -0.2898958921432495f, 0.0005412101745605469f, 0.15575110912322998f, -0.23364439606666565f, -0.22126415371894836f, -0.2299806922674179f, 0.20789101719856262f, 0.20879976451396942f, -0.07678298652172089f, -0.20616638660430908f, -0.2658206820487976f, 0.2798689901828766f, -0.02376655302941799f, -0.02300904132425785f, 0.11293289065361023f, -0.020753884688019753f, -0.031773749738931656f, 0.07719138264656067f };
