// MLP Model information
// Can be generated by MLP-Training-for-ESP32.ipynb and pasted into this file
// Train mean and standard deviation used to standardise EMG data

const float TRAIN_MEAN[] = { -1.339606710017463e-17f, 1.1234642272253549e-17f, -1.402381524431621e-17f, 3.2341637350984584e-18f, -5.442594832250244e-18f, 1.9735148918904393e-18f, 1.9240043082549148e-18f, 2.3354027159984704e-18f };
const float TRAIN_SD[] = { 1.000000000000019f, 1.000000000000278f, 0.9999999999999547f, 1.0000000000004226f, 0.9999999999999705f, 0.9999999999999807f, 1.0000000000000706f, 1.0000000000000577f };
const float WEIGHTS[] PROGMEM = { 0.25576817989349365f, -0.07884817570447922f, 0.09339223802089691f, -0.2644997239112854f, -0.09829214215278625f, -0.22266742587089539f, -0.11885042488574982f, -0.11580408364534378f, -0.10348383337259293f, 0.10520529747009277f, 0.13144677877426147f, -0.07109010219573975f, 0.17104816436767578f, 0.16604027152061462f, -0.08427436649799347f, 0.17609179019927979f, 0.08440721035003662f, 0.48636394739151f, 0.04672585055232048f, -0.13952253758907318f, 0.15350954234600067f, 0.1521996408700943f, -0.016844380646944046f, -0.12880249321460724f, 0.04197452962398529f, 0.11644405126571655f, 0.23194266855716705f, -0.08907018601894379f, -0.0733434185385704f, 0.107582226395607f, 0.013927869498729706f, 0.1405632197856903f, 0.12421928346157074f, -0.035227492451667786f, 0.05328581482172012f, 0.19109609723091125f, 0.14857150614261627f, 0.21188217401504517f, -0.06760753691196442f, 0.17574962973594666f, -0.19086472690105438f, 0.029275430366396904f, -0.11461656540632248f, -0.34615567326545715f, 0.0017397752963006496f, 0.016342148184776306f, 0.009181572124361992f, 0.12046200037002563f, -0.1480138897895813f, 0.04623652249574661f, 0.4768427610397339f, -0.09111642837524414f, 0.23076622188091278f, 0.06350260972976685f, -0.06922882795333862f, -0.743942379951477f, -0.760530948638916f, -0.036497291177511215f, -0.695220410823822f, -0.4488101303577423f, 0.08188992738723755f, -0.1974106729030609f, -0.48464614152908325f, -0.15821406245231628f, -0.31822600960731506f, -0.3493817150592804f, 0.7646056413650513f, 0.5369356870651245f, -0.0686173215508461f, 0.0006494005210697651f, -0.06660015881061554f, 0.20063352584838867f, -0.8713120222091675f, -0.2408204972743988f, 0.27293357253074646f, 0.3539550006389618f, -0.17915841937065125f, 0.26547014713287354f, 0.47537434101104736f, -0.21265746653079987f, 0.42221078276634216f, -0.41239139437675476f, -0.06277500092983246f, 0.13040994107723236f, -0.34903770685195923f, -0.014862854033708572f, -0.4536643326282501f, 0.40804293751716614f, -0.05637366697192192f, 0.16312354803085327f, 0.038212306797504425f, 0.2740286588668823f, 0.11506316065788269f, 0.3577635884284973f, -0.5693384408950806f, -0.07268522679805756f, -0.02692025527358055f, 0.8311074376106262f, -0.04396916553378105f, 0.06264659017324448f, 0.5009090304374695f, -0.5609468817710876f, -0.06136111915111542f, -0.1050247773528099f, 0.5989634990692139f, -0.7070208191871643f, -0.16201145946979523f, 0.1535448580980301f, -0.17735740542411804f, -0.4748464822769165f, 0.142593652009964f, -0.5716254115104675f, -0.11375197768211365f, 0.1671375334262848f, -0.13913346827030182f, -0.2362380474805832f, -0.20954175293445587f, -0.09250722080469131f, -0.17526324093341827f, -0.16347399353981018f, 0.13424065709114075f, 0.23295757174491882f, 0.21465151011943817f, 0.1552136242389679f, 0.26955732703208923f, 0.5835440158843994f, -0.4989147484302521f, 0.3769308626651764f, 0.07196734845638275f, 0.3675554096698761f, 0.519493043422699f, -0.08245841413736343f, 0.12838776409626007f, 0.12536093592643738f, 0.2705421447753906f, 0.006437835283577442f, -0.24976390600204468f, -0.398472398519516f, -0.5561050176620483f, 0.6581013202667236f, 0.01395807508379221f, -0.8302329182624817f, -0.19462423026561737f, 0.32745906710624695f, -0.49118179082870483f, 0.042276784777641296f, -0.1656317263841629f, 0.34383660554885864f, 0.15114779770374298f, -0.06713535636663437f, 0.2941581606864929f, -0.4713521897792816f, -0.11137953400611877f, 0.030441248789429665f, -0.08179351687431335f, -0.7594128251075745f, -0.21525894105434418f, -0.04587405547499657f, 0.061268728226423264f, -0.28455767035484314f, 0.22155770659446716f, -0.1820763647556305f, -0.24220900237560272f, 0.2823884189128876f, 0.10622555017471313f, 0.2866501212120056f, 0.008158506825566292f, 0.36004212498664856f, -0.1107541024684906f, 0.0036792911123484373f, 0.3063836693763733f, 0.27612078189849854f, -0.3535257875919342f, -0.054308462888002396f, 0.03632231429219246f, 0.44560492038726807f, 0.0007429737015627325f, -0.3595793843269348f, 0.0026073441840708256f, 0.08559221029281616f, -0.011925363913178444f, 0.1610799878835678f, -0.21632644534111023f, 0.23371385037899017f, 0.1592511385679245f, 0.16081838309764862f, -0.2089870125055313f, 0.08369974046945572f, -0.04858078807592392f, 0.29343298077583313f, 0.026123372837901115f, -0.265270471572876f, -0.11375795304775238f, -0.20071516931056976f, -0.12407253682613373f, 0.09049184620380402f, -0.06811277568340302f, 0.46279454231262207f, -0.2691991925239563f, -0.09733331948518753f, 0.7358249425888062f, -2.2076807022094727f, 0.13349460065364838f, -0.14371302723884583f, 1.2355347871780396f, -0.607414960861206f, -0.066774383187294f, -0.09886687994003296f, 0.34651267528533936f, -0.9484125375747681f, 0.6138380765914917f, -1.6829248666763306f, -0.5070921182632446f, 0.6116777658462524f, -0.12832969427108765f, 0.4357282519340515f, -0.035728372633457184f, 0.4697028696537018f, 0.5521925091743469f, 0.20339851081371307f, 1.138559103012085f, -0.308518648147583f, -1.0885084867477417f, 1.242103099822998f, 1.059281826019287f, 1.9141547679901123f, -1.0512030124664307f, -0.8175309896469116f, -0.30627572536468506f, 1.2205228805541992f, 0.28678256273269653f, -0.00988838542252779f, -1.3454471826553345f, 0.07260367274284363f, 0.5165879726409912f, 0.9435015320777893f, -0.3709152638912201f, 0.004185858182609081f, 0.29918381571769714f, 0.027706770226359367f, -0.012981812469661236f, -1.1106098890304565f, 0.5077145099639893f, -1.2799513339996338f, 0.6881077885627747f, -0.21483135223388672f, -0.6457236409187317f, 0.17669498920440674f, 0.07126900553703308f, -0.5166146755218506f, 0.024101771414279938f, -0.25376245379447937f, 0.18146829307079315f, 0.02757111005485058f, -0.6014336943626404f, -0.2663876414299011f, -0.5259014368057251f, 0.07251119613647461f, -0.15296512842178345f, 0.2874162793159485f, 0.3047237992286682f, -0.8583860993385315f, 0.214593306183815f, 0.1365157812833786f, -0.1375652551651001f, -0.14331859350204468f, 0.3456149399280548f, 0.46232324838638306f, 0.17184200882911682f, -0.20736801624298096f, 0.2723398208618164f, -0.04445655643939972f, 0.027280857786536217f, 0.41299617290496826f, 0.3125208914279938f, 0.2228069007396698f, -0.005412241909652948f, -0.18701274693012238f, 0.16282065212726593f, 0.1756974756717682f, 0.2695167660713196f, -0.10606369376182556f, -0.02992611937224865f, -0.29938066005706787f, 0.016086677089333534f, 0.2141256481409073f, -0.05360657721757889f, 0.3306299149990082f, -0.03126337379217148f, -0.00017588489572517574f, 0.001848180079832673f, 0.25471290946006775f, 0.17655938863754272f, -0.009643040597438812f, 0.3294377624988556f, -0.04386414587497711f, 0.1489739865064621f, 0.10214617103338242f, 0.08358954638242722f, -0.053501736372709274f, 0.15406936407089233f, -0.36220040917396545f, 0.22225461900234222f, -0.15301312506198883f, 1.9677983522415161f, -0.6300170421600342f, 0.05886663496494293f, 0.07233478873968124f, -0.22689011693000793f, -0.41548237204551697f, -0.555206835269928f, 0.11193740367889404f, 0.34028881788253784f, 0.2935594618320465f, 0.02796931192278862f, 0.25372418761253357f, -0.23758403956890106f, 0.33576875925064087f, 0.5018258094787598f, 0.12877890467643738f, 0.2744007408618927f, 0.5318306088447571f, -1.0156008005142212f, -0.1551799327135086f, 0.735508918762207f, 0.6185413002967834f, -0.6569993495941162f, -0.4571344554424286f, 0.49711450934410095f, 0.9080334901809692f, -0.28495222330093384f, 0.48776233196258545f, -0.4433075785636902f, 0.7539991736412048f, 0.31396034359931946f, 0.22265534102916718f, -0.054047100245952606f, 0.16644524037837982f, 0.2661154270172119f, 0.47528406977653503f, 0.025150161236524582f, 1.0892443656921387f, 0.09925015270709991f, -0.20332394540309906f, 0.40900081396102905f, 0.03190745413303375f, -0.018037132918834686f, 0.23609937727451324f, -0.0602627694606781f, -0.02950785681605339f, 0.17614634335041046f, 0.15743637084960938f, 0.004835113883018494f, -0.19573868811130524f, 0.04378063231706619f, 0.08287131041288376f, -0.006803624331951141f, 0.06335406750440598f, 0.03087328001856804f, 0.05278483405709267f, -0.10386788100004196f, -0.02153385803103447f, -0.08582616597414017f, -0.0533650666475296f, 0.0067958589643239975f, 0.1098112091422081f, 0.054269835352897644f, 0.06207200884819031f, 0.26341643929481506f, -0.0028350462671369314f, 0.11051826924085617f, -0.05056164786219597f, -0.014697513543069363f, -0.006588582415133715f, 0.1343015432357788f, 0.28659144043922424f, 0.15787498652935028f, 0.06522475183010101f, -0.027604689821600914f, -0.03807346895337105f, 0.14925214648246765f, 0.11235856264829636f, 0.12635904550552368f, -0.03896726667881012f, -0.11466826498508453f, 0.15495747327804565f, 0.12566418945789337f, 0.02112591825425625f, 0.08666098862886429f, 0.006377282086759806f, -0.018421858549118042f, 0.007599190808832645f, -0.037595558911561966f, 0.02256525680422783f, -0.04057369381189346f, -0.19653405249118805f, 0.04062892124056816f, 0.05375165119767189f, -0.04217355698347092f, -0.03284802287817001f, -0.18902648985385895f, 0.11358366161584854f, 0.027729108929634094f, -0.16082720458507538f, 0.1941993683576584f, 0.12561847269535065f, 0.06389990448951721f, -0.05029311031103134f, 0.016233449801802635f, -0.16707903146743774f, -0.7932316064834595f, 0.20510713756084442f, -1.1341328620910645f, 0.17431344091892242f, -0.029701074585318565f, 0.032102786004543304f, -0.16528184711933136f, -0.07017441093921661f, -0.01707848347723484f, 0.22903922200202942f, -0.14471794664859772f, 0.3025691509246826f, 0.022134892642498016f, 0.03621266037225723f, -0.06839650124311447f, 0.21369129419326782f, -0.09715954214334488f, -0.19271454215049744f, -0.2020532190799713f, 0.11874531954526901f, -0.3288470208644867f, -0.04276898875832558f, 0.1020655557513237f, -0.38948336243629456f, 0.34560468792915344f, 0.08198870718479156f, 0.16770078241825104f, 0.05960291996598244f, 0.2727382183074951f, -0.08991792798042297f, 0.30644094944000244f, -0.4161299467086792f, 0.09285701811313629f, -0.10404253005981445f, -0.75388103723526f, 0.19122035801410675f, 0.3824131488800049f, -0.18822622299194336f, 0.08757471293210983f, 0.20175471901893616f, -0.1949937492609024f, 0.18662293255329132f, -0.004576161503791809f, -0.07494185864925385f, -0.18517883121967316f, 0.7210709452629089f, 0.14619986712932587f, -0.013247446157038212f, 0.16060541570186615f, 0.3448115587234497f, -0.5125763416290283f, 0.06431964039802551f, 0.17468570172786713f, 0.18064340949058533f, 0.09925977885723114f, 0.24624058604240417f, 0.1881367564201355f, 0.08404754847288132f, -0.16458626091480255f, -0.20126934349536896f, 0.15138931572437286f, -0.03801077604293823f, 0.1216118186712265f, -1.2687517404556274f, 0.011649122461676598f, -0.16064442694187164f, 0.1535959541797638f, 0.28015339374542236f, 0.13490958511829376f, 0.20202133059501648f, 0.08185894787311554f, -0.11955223977565765f, -0.12812268733978271f, 0.005811548791825771f, 0.17841215431690216f, -0.04651494696736336f, -0.21189835667610168f, -0.341511994600296f, -0.25299572944641113f, 0.10153263062238693f, -0.029926015064120293f, 0.39752301573753357f, -0.44335073232650757f, -0.011655405163764954f, -1.4560126066207886f, 0.16869191825389862f, 0.19399383664131165f, 0.009466978721320629f, -0.026504715904593468f, 0.2395668923854828f, -0.08523876965045929f, 0.049586132168769836f, -0.09218256175518036f, -0.0030615937430411577f, 0.3342092037200928f, -0.17573818564414978f, 0.24688123166561127f, 0.12603260576725006f, -0.06287817656993866f, 0.05759241804480553f, -0.16521741449832916f, -0.05528731644153595f, -0.018461953848600388f, 0.4707295596599579f, 0.1207079067826271f, 0.36960315704345703f, -0.20751415193080902f, 0.02868914045393467f, -0.03858993574976921f, 0.00907263346016407f, 0.47972139716148376f, -0.01793549582362175f, 0.4215029180049896f, -0.004005609080195427f, -0.019924873486161232f, 0.23885725438594818f, 0.051544204354286194f, 0.01257791742682457f, 0.1343592405319214f, 0.19459351897239685f, -0.09826111048460007f, -0.24132142961025238f, -0.21565236151218414f, -0.07733064889907837f, -0.07090875506401062f, 0.055951304733753204f, -0.02783973701298237f, -0.18408122658729553f, -0.2660747170448303f, -0.14651362597942352f, 0.33576926589012146f, 0.2712293863296509f, -0.11554476618766785f, -0.010470135137438774f, -0.08826998621225357f, -0.08644343912601471f, 0.23680882155895233f, 0.027078356593847275f, 0.03705209866166115f, 0.2394227534532547f, 0.3588598072528839f, -0.1693967878818512f, 0.04973830282688141f, -0.1886385977268219f, 0.5100425481796265f, 0.49793514609336853f, 0.9472137689590454f, 0.13105453550815582f, 0.471849650144577f, 0.48341724276542664f, -1.0924474000930786f, -0.2714894115924835f, 1.084305763244629f, 0.21734628081321716f, -0.1330566108226776f, 0.7371523976325989f, -0.3967779278755188f, 0.025041935965418816f, -0.5790492296218872f, 0.09568363428115845f, 0.36426809430122375f, -0.6758686900138855f, 0.16036830842494965f, 1.225913166999817f, -0.2555709779262543f, -0.3621968626976013f, 0.48618921637535095f, -0.6587347984313965f, -0.352082759141922f, -0.8942393064498901f, 0.44116345047950745f, -0.4849550426006317f, -0.0822957456111908f, 0.20624637603759766f, -0.3156065046787262f, 0.20999881625175476f, -0.1604197770357132f, 0.8694906234741211f, -0.29357877373695374f, -0.45774826407432556f, 0.36339104175567627f, 0.9090560078620911f, -0.5740616917610168f, -0.5221336483955383f, -0.10539330542087555f, 0.09380502998828888f, 0.19502142071723938f, -0.5576900839805603f, 0.10843844711780548f, 0.7641220688819885f, 0.4894140660762787f, -0.2890954315662384f, -0.11999021470546722f, -0.11258106678724289f, -0.6252709627151489f, 0.2509172558784485f, 0.21050380170345306f, 0.18091340363025665f, 0.09715981036424637f, 0.019033506512641907f, -0.3105560541152954f, 0.09722112119197845f, -0.1825912594795227f, -0.15759629011154175f, 0.10754001885652542f, 0.380649209022522f, -0.04585862159729004f, 0.2406824678182602f, -0.1348649561405182f, 0.24264371395111084f, 0.17527234554290771f, 0.04211844876408577f, 0.3628622591495514f, -0.7499179840087891f, -0.10918295383453369f, 0.2000982165336609f, 0.178602397441864f, 0.05946984514594078f, 0.09080874174833298f, -0.5334299802780151f, 0.17765328288078308f, -0.21204417943954468f, -0.2807292640209198f, -0.3575538992881775f, -0.15374474227428436f, 0.4366394877433777f, -0.08012264966964722f, 0.07121706753969193f, 0.17878609895706177f, -0.11591070890426636f, 0.09377884119749069f, -0.10773200541734695f, -0.13067196309566498f, -0.23183347284793854f, -0.31184184551239014f, -0.1696598380804062f, 0.20097090303897858f, -0.062152378261089325f, -0.047748737037181854f, -0.1580735445022583f, -0.10724692791700363f, -0.6328446865081787f, -0.09276840090751648f, 0.09564907848834991f, 0.16354505717754364f, 0.08937684446573257f, 0.34026211500167847f, 0.18092265725135803f, -0.05348672345280647f, -0.45088645815849304f, 1.144089937210083f, 0.5930774211883545f, -0.6623077988624573f, 0.33492714166641235f, -0.014808181673288345f, -0.014772558584809303f, 0.3556838631629944f, 0.02766038477420807f, 0.13745753467082977f, 0.20503835380077362f, -0.317272424697876f, 0.1656322181224823f, -0.29944488406181335f, -0.4237268567085266f, 0.10946925729513168f, 0.26351699233055115f, -0.649793803691864f, -0.5575112104415894f, 0.14606313407421112f, -0.6135374903678894f, -0.06696075946092606f, 0.3534824252128601f, -1.284870982170105f, -0.3431228995323181f, 0.5813407897949219f, 0.18111295998096466f, 0.050569601356983185f, 0.04133862257003784f, -0.2613166272640228f, 0.1629301905632019f, 0.17026464641094208f, 0.7391295433044434f, -0.23002773523330688f, -0.14389584958553314f, -0.44479110836982727f, -0.1053299754858017f, -0.14694476127624512f, 0.21485677361488342f, 0.25109243392944336f, -1.0813045501708984f, -0.1439087837934494f, 0.1735944002866745f, -0.11483762413263321f, -0.1382918655872345f, 0.09492288529872894f, 0.03708852455019951f, -0.05437340959906578f, -0.0867144763469696f, -0.09424366056919098f, 0.10542512685060501f, 0.07894037663936615f, -0.05913471803069115f, -0.057754091918468475f, -0.030806317925453186f, 0.020341696217656136f, -0.0424501858651638f, -0.10264747589826584f, -0.10743051767349243f, -0.03618576377630234f, -0.21389099955558777f, -0.09816459566354752f, -0.12421390414237976f, -0.07655157893896103f, -0.24406349658966064f, 0.1815730333328247f, 0.12320999056100845f, -0.0029156601522117853f, 0.07080055773258209f, -0.15880116820335388f, 0.24567565321922302f, 0.22501341998577118f, 0.08694756776094437f, 0.1546613872051239f, 0.13372062146663666f, 0.06335166841745377f, -0.00919924397021532f, 0.021942486986517906f, -0.08700351417064667f, 0.13459163904190063f, -0.012002427130937576f, -0.1508922427892685f, 0.016434188932180405f, -0.2126322239637375f, 0.020558800548315048f, -0.05479804053902626f, -0.14898782968521118f, 0.13435044884681702f, 0.021847333759069443f, 0.13011257350444794f, 0.10738704353570938f, 0.12260834127664566f, -0.1981116682291031f, -0.22007645666599274f, 0.00018519879085943103f, 0.22586487233638763f, 0.7973154187202454f, -0.5038526058197021f, 0.18838590383529663f, -0.3838233947753906f, -0.06312351673841476f, -0.09093969315290451f, 0.15003624558448792f, -0.6669512391090393f, -0.6036802530288696f, 0.2542581260204315f, -0.01187057513743639f, 0.17624390125274658f, -0.1894662231206894f, 0.0988115668296814f, -0.02838556468486786f, -0.4050792455673218f, -0.39313045144081116f, 0.3270907998085022f, 0.017970945686101913f, 0.1315399557352066f, 0.2618069648742676f, -0.42946678400039673f, 0.023748066276311874f, 0.22605444490909576f, 0.3522043228149414f, 0.23877668380737305f, 0.09612302482128143f, 0.0595363974571228f, 0.19984430074691772f, 0.19576533138751984f, 0.023669295012950897f, -0.30192574858665466f, -0.33199214935302734f, -0.18416549265384674f, -0.5359121561050415f, -1.0146373510360718f, 0.08093850314617157f, -0.17898590862751007f, -0.04910238832235336f, 0.5635906457901001f, -0.012538045644760132f, -0.3372723162174225f, 0.349125474691391f, -0.08417600393295288f, 0.21047711372375488f, -0.4977504312992096f, -0.038240570574998856f, 0.0051138997077941895f, -0.15772584080696106f, -0.9753678441047668f, 0.20411887764930725f, 0.5341594815254211f, -0.23817363381385803f, -0.06659381091594696f, 0.21216274797916412f, 0.1788937896490097f, 0.6957249045372009f, -0.05386444181203842f, 0.05723845213651657f, 0.4499717950820923f, -0.2495395392179489f, -0.48498231172561646f, 0.005725969094783068f, -0.17538028955459595f, 0.08710026741027832f, 0.3139686584472656f, -0.6479762196540833f, 0.1500455141067505f, 0.08832907676696777f, -0.49418070912361145f, -0.22144006192684174f, 0.5385757088661194f, 0.0006607191753573716f, 0.2337709367275238f, 0.2637709081172943f, 0.060291118919849396f, -0.01357817742973566f, 0.10241229087114334f, -0.002800664631649852f, -0.4550853669643402f, 0.8830481767654419f, 0.13823236525058746f, -0.4342283308506012f, 0.0789482593536377f, -0.33905813097953796f, -0.4547399580478668f, 0.5458937287330627f, -0.1705622524023056f, -0.11573489755392075f, 0.3793084919452667f, 0.02408479154109955f, 0.33542394638061523f, 0.15389935672283173f, 0.05298518389463425f, -0.2695714235305786f, 0.004828764591366053f, -0.10524429380893707f, -0.06923609972000122f, -0.01927672140300274f, -0.007025956641882658f, 0.1263086199760437f, 0.3044660985469818f, 0.05884880945086479f, 0.0991997942328453f, -0.0323738269507885f, 0.19710490107536316f, 0.05025092512369156f, -0.03082210198044777f, 0.06678657233715057f, 0.12778235971927643f, 0.34816673398017883f, -0.04232534021139145f, 0.13560089468955994f, -0.1694205105304718f, 0.08788231760263443f, -0.16989903151988983f, -0.04360442981123924f, 0.024838484823703766f, -0.23490659892559052f, -0.23620323836803436f, 0.2310885488986969f, -0.11211073398590088f, -0.08528563380241394f, -0.32330894470214844f, 0.30166545510292053f, 0.10064508765935898f, 0.002629057038575411f, -0.08239425718784332f, 0.16459926962852478f, 0.10788422077894211f, 0.06160387024283409f, 0.13091595470905304f, -0.13291534781455994f, -0.150445818901062f, 0.0030698361806571484f, -0.16084012389183044f, 0.4129868447780609f, -0.21843479573726654f, 0.1361110508441925f, 0.19050198793411255f, -0.06333771347999573f, 0.04815073311328888f, -0.02450832910835743f, 0.016096850857138634f, -0.1827489733695984f, -0.029237333685159683f, 0.35053756833076477f, 0.030479177832603455f, 0.2572122812271118f, 2.0960447788238525f, 0.03077327460050583f, 0.1593959629535675f, -0.22391773760318756f, 1.6018099784851074f, -0.26026061177253723f, -0.022668996825814247f, 1.0215638875961304f, -0.6407530307769775f, -0.7418938875198364f, -0.5213256478309631f, -0.40960004925727844f, -0.7820407152175903f, 0.4052407741546631f, -0.6777594685554504f, 0.0325205996632576f, -1.325022578239441f, -0.03198624029755592f, 0.693722665309906f, 1.0943485498428345f, -0.4597421884536743f, -1.138217806816101f, 0.4296762943267822f, 0.250769704580307f, 0.2518872618675232f, -0.5020105838775635f, 0.42911937832832336f, -0.5668753981590271f, 1.0575037002563477f, 0.16893689334392548f, -0.5162830352783203f, -0.15500709414482117f, -0.4575035870075226f, -0.15912389755249023f, -0.6918219327926636f, 0.0734044536948204f, 0.05288200080394745f, 0.27918633818626404f, -0.9785901308059692f, 0.4947105646133423f, -0.2134748250246048f, -0.0905013233423233f, 0.9843277335166931f, 0.4963824152946472f, -0.08345416933298111f, -0.5347050428390503f, -0.32333582639694214f, -0.13785432279109955f, 0.11910851299762726f, 0.2315617948770523f, 0.622077465057373f, 0.03897327184677124f, 0.3779790997505188f, 0.18313193321228027f, 0.16858378052711487f, 0.3547639846801758f, 0.3218574821949005f, 0.47384074330329895f, -0.34047582745552063f, -0.25942322611808777f, -0.014722930267453194f, 0.44780856370925903f, -0.3582473397254944f, -0.17179258167743683f, -0.21861198544502258f, 0.10638173669576645f, -0.006019751075655222f, 0.275923490524292f, 0.3963235914707184f, -0.12587766349315643f, 0.08497878164052963f, 0.030234873294830322f, -0.016099154949188232f, 0.5694534778594971f, -0.11746013164520264f, -0.06571932882070541f, 0.264371782541275f, -0.06623893976211548f, 0.1622815579175949f, 0.02517780289053917f, -0.32827460765838623f, 0.2932575047016144f, -0.04973165690898895f, -0.2680296301841736f, -0.11789052933454514f, -0.19036230444908142f, -0.068105548620224f, -0.07594752311706543f, -0.3468603193759918f, -0.13661271333694458f, -0.42123275995254517f, -0.1577960103750229f, -0.20059086382389069f, 0.199397012591362f, -0.03177174553275108f, 0.41611865162849426f, -0.3156645596027374f, 0.3431186079978943f, 0.09666131436824799f, -0.1593347191810608f, -0.592272162437439f, -0.15526103973388672f, 0.2665293514728546f, -0.041709043085575104f, 0.5009666085243225f, -0.23497812449932098f, 0.201006218791008f, -0.05035677179694176f, -0.24711072444915771f, -1.0296052694320679f, 0.08126559853553772f, -0.3395296335220337f, 0.19687606394290924f, 0.042062096297740936f, 0.592809796333313f, -0.028056034818291664f, 0.14085957407951355f, -0.4258100986480713f, 0.43701815605163574f, 0.8426809310913086f, -0.06807921081781387f, -0.1199892982840538f, 0.44451335072517395f, -0.20261040329933167f, -0.2075331062078476f, 0.17669184505939484f, 0.41320371627807617f, -0.2625707983970642f, -0.7201616168022156f, -0.4070633053779602f, -0.8343700170516968f, 0.5219939351081848f, -0.33539921045303345f, -0.42070046067237854f, 0.11561276018619537f, 0.17304761707782745f, -0.2168533205986023f, -0.15482798218727112f, -0.2458001673221588f, 0.04311293363571167f, 0.5022577047348022f, -0.18096891045570374f, 0.43458008766174316f, 0.30853384733200073f, -0.0076643177308142185f, -0.07521861046552658f, 0.04843791201710701f, -0.20660477876663208f, -0.040639981627464294f, 0.15250733494758606f, -0.07325354963541031f, -0.5085610151290894f, 0.09362293034791946f, -0.07902553677558899f, 0.061645250767469406f, -0.014392971992492676f, 0.08471522480249405f, 0.4307832717895508f, -0.08841731399297714f, -0.02236642874777317f, 0.1909025013446808f, 0.0012989502865821123f, -0.3074471354484558f, 0.014119277708232403f, -0.04394710436463356f, -0.1287999004125595f, -0.27108320593833923f, 0.0664011687040329f, -0.2701895534992218f, 0.1596480906009674f, 0.09376626461744308f, 0.04338202625513077f, -0.10886361449956894f, 0.2809624671936035f, 0.013142058625817299f, -0.08923736959695816f, -0.005779522471129894f, 0.12837451696395874f, -0.1480230689048767f, -0.16863882541656494f, 0.2805219888687134f, 0.15249952673912048f, 0.2052297294139862f, 0.10421352088451385f, 0.05741763859987259f, 0.003949727397412062f, 0.14156538248062134f, -0.1447758972644806f, -0.2332434356212616f, -0.06444714963436127f, -0.16336321830749512f, -0.18278354406356812f, -0.3742390275001526f, 0.016569452360272408f, -0.12668897211551666f, -0.09700021892786026f, 0.01799703761935234f, -0.05001017078757286f, -0.12202443182468414f, -0.2521021366119385f, 0.3747544586658478f, -0.15941135585308075f, -0.6138927936553955f, -0.20067812502384186f, -0.031028451398015022f, -0.35542571544647217f, -0.0972353145480156f, -0.09788250923156738f, -0.1797311156988144f, 0.06407319754362106f, 0.2007918804883957f, 0.5285785794258118f, -0.36530327796936035f, -0.44541171193122864f, 0.1492198258638382f, -0.13457249104976654f, -0.5319124460220337f, 0.046687692403793335f, -0.5240060091018677f, 0.11293165385723114f, 0.0571255087852478f, -0.24438834190368652f, 0.2531169354915619f, 0.3787887990474701f, -0.017422273755073547f, -0.2652290463447571f, -0.32109734416007996f, -0.06051243841648102f, 0.11362020671367645f, 0.4756025969982147f, 0.18077969551086426f, 0.1405729204416275f, 0.0014999312115833163f, -0.14461396634578705f, 0.11031762510538101f, -0.4869421720504761f, 0.05385160446166992f, 0.21783027052879333f, 0.5595869421958923f, -0.10986106842756271f, -1.2142778635025024f, 0.13330475986003876f, 0.40086838603019714f, 0.29188743233680725f, 0.07354208827018738f, -0.5358336567878723f, 0.1744924783706665f, 0.21351565420627594f, 0.040668413043022156f, -0.024192027747631073f, 0.2794429361820221f, -0.04547800496220589f, -0.3810587227344513f, -0.10290548950433731f, 0.28282296657562256f, 0.14205221831798553f, -0.00124158535618335f, 0.06961966305971146f, 0.5879145860671997f, -0.012785321101546288f, 0.3327662944793701f, 0.016099989414215088f, 0.6501970887184143f, -1.5517858266830444f, -0.3664895296096802f, -0.08482032269239426f, -1.4115253686904907f, -0.5039492845535278f, -0.7604222893714905f, -0.27411365509033203f, -0.0785946175456047f, -0.13445553183555603f, 0.16129668056964874f, 0.5071466565132141f, -0.18562981486320496f, 0.2470720261335373f, 0.10798131674528122f, 0.001185750705190003f, -0.7220136523246765f, -0.036395832896232605f, -0.15724213421344757f, 0.049122028052806854f, 0.03244489058852196f, 0.08385760337114334f, -0.3093826174736023f, 0.1984802484512329f, 0.1374090313911438f, 0.08004950731992722f, -0.09205780178308487f, 0.3661573529243469f, -1.96932053565979f, 0.037603959441185f, 0.2824260890483856f, 0.04984169825911522f, -0.12183257937431335f, 0.6051483154296875f, 0.03741611912846565f, 0.13805663585662842f, -0.05483151972293854f, 0.13840888440608978f, 0.15011318027973175f, -0.3330656886100769f, 0.31537503004074097f, -0.12007224559783936f, 0.2512856721878052f, -0.024849090725183487f, 0.017687056213617325f, 0.28469252586364746f, 0.20985916256904602f, 0.21906974911689758f, 0.28042513132095337f, -0.25999563932418823f, -0.08748127520084381f, 0.3390592336654663f, -0.05637339502573013f, -0.20571884512901306f, -0.2742520868778229f, -0.2328111231327057f, -0.3569292426109314f, -0.08552544564008713f, 0.10874175280332565f, 0.10746105015277863f, 0.1857294738292694f, 0.2146306037902832f, -0.10584456473588943f, -0.09018273651599884f, 0.15795409679412842f, -0.22680675983428955f, -0.32562166452407837f, 0.4114869236946106f, -0.08129357546567917f, 0.26580238342285156f, -0.09179190546274185f, -0.21823585033416748f, -0.2758195102214813f, 0.4995889961719513f, 0.43624091148376465f, 0.4743211269378662f, -0.39070045948028564f, 0.2642284631729126f, -0.24655799567699432f, -0.19261139631271362f, 0.06537660956382751f, -0.11695623397827148f, -0.11105635017156601f, 0.14118592441082f, -1.200258493423462f, -0.8499565124511719f, 0.057850733399391174f, -0.0790056586265564f, -0.14233852922916412f, -0.2656891942024231f, 2.3307883739471436f, 0.10577571392059326f, 0.5475059747695923f, 0.35250934958457947f, -0.2064477503299713f, 2.1924779415130615f, -0.26710185408592224f, 0.4537558853626251f, 0.21622031927108765f, -1.5934187173843384f, -0.19477902352809906f, 0.6215991973876953f, 0.7477256059646606f, -0.11339080333709717f, -0.5930496454238892f, -0.22678448259830475f, -0.21086962521076202f, -0.33261245489120483f, 0.2523512542247772f, 0.6818112730979919f, -0.2137010395526886f, 1.1727677583694458f, -0.3686073124408722f, 0.6778411865234375f, 0.2150130271911621f, -0.3268815279006958f, -0.5229105353355408f, 1.1155972480773926f, -0.007180276792496443f, 0.979095458984375f, 0.169048011302948f, -0.11682271957397461f, 0.19574080407619476f, 0.8450661301612854f, 0.057107631117105484f, -0.7766237258911133f, -0.6379134058952332f, 1.0392646789550781f, -0.10239312052726746f, -0.20921838283538818f, -0.22606223821640015f, -0.5261804461479187f, 0.0663495734333992f, 0.578818142414093f, -0.09900591522455215f, -0.21417157351970673f, 0.23211385309696198f, 0.16282397508621216f, 0.5987251996994019f, -0.15688693523406982f, -0.21152251958847046f, -0.1240452453494072f, 0.19365859031677246f, -0.17037847638130188f, -0.162212073802948f, 0.4046032428741455f, -0.03556755557656288f, 0.0401063896715641f, 0.2799515128135681f, -0.0765702947974205f, -0.1320841759443283f, -0.1311645209789276f, -0.2272471785545349f, -0.011920605786144733f, -0.6849165558815002f, -0.08850226551294327f, 0.03025779128074646f, 0.555175244808197f, -0.14014312624931335f, 0.09046585112810135f, -0.05438728258013725f, 0.07950039952993393f, 0.03220038488507271f, 0.14083269238471985f, -0.2792373299598694f, -0.12045405805110931f, -0.27654120326042175f, 0.12409494072198868f, 0.12042102217674255f, 0.06519188731908798f, 0.24764345586299896f, 0.13674958050251007f, 0.06640766561031342f, -0.06749629229307175f, -0.012364573776721954f, 0.05783521384000778f, -0.3985704481601715f, 0.2028764933347702f, -0.18454428017139435f, -0.05244669318199158f, -0.4316560626029968f, 0.17678479850292206f, 0.037539537996053696f, 0.313766747713089f, 0.09741398692131042f, 0.37493619322776794f, 0.22986505925655365f, -0.1513923853635788f, -0.36931195855140686f, -0.08832597732543945f, -0.6330562829971313f, -0.18000562489032745f, 0.5688719153404236f, -0.1619318425655365f, 1.0027650594711304f, 0.6300785541534424f, -0.40298375487327576f, -0.06398307532072067f, 0.044000294059515f, 0.3499661386013031f, -0.28715991973876953f, -0.21681711077690125f, 0.09570682793855667f, 0.18894228339195251f, -0.5529031753540039f, 0.19432446360588074f, -0.06466595828533173f, -0.3685990869998932f, -0.01740018092095852f, -0.35002151131629944f, -0.09960811585187912f, 0.6240453720092773f, 0.11855612695217133f, 0.39753174781799316f, -0.25741201639175415f, 0.0587579607963562f, -0.7423055768013f, -0.7887189984321594f, -0.10175597667694092f, -0.6939297914505005f, -0.03380239009857178f, 0.2764153778553009f, -0.20106226205825806f, 0.07038302719593048f, -0.10118099302053452f, -0.643332839012146f, 0.08527432382106781f, 0.11569524556398392f, -0.8806705474853516f, 0.03339742124080658f, -0.36418017745018005f, 0.6414958238601685f, 0.1886630654335022f, -0.40405067801475525f, 0.12922415137290955f, 0.1897629052400589f, -0.1652846336364746f, -0.20824967324733734f, -0.012490902096033096f, 0.5208926796913147f, 0.12581945955753326f, -0.07724852859973907f, 0.25284096598625183f, 0.052233558148145676f, -0.11498582363128662f, -0.038890540599823f, 0.27812814712524414f, 0.21488353610038757f, -0.1452447921037674f, -0.14261946082115173f, 0.4345794916152954f, -0.295211523771286f, 0.27022868394851685f, -0.03184283524751663f, -0.04915438964962959f, 0.1489553451538086f, 0.4189314544200897f, 0.4133508801460266f, -0.036999352276325226f, -0.04218680411577225f, 0.15219157934188843f, -0.3407490849494934f, 0.5224287509918213f, -0.25808966159820557f, -0.151460662484169f, 0.20547470450401306f, -0.04775519669055939f, 0.06405263394117355f, -0.20823286473751068f, -0.10168217122554779f, 0.10427329689264297f, 0.18568964302539825f, 0.17592310905456543f, -0.3732856512069702f, 0.21422867476940155f, -0.0793074518442154f, 0.10251398384571075f, 0.46969103813171387f, 0.057045478373765945f, 0.05766622722148895f, -0.015730440616607666f, 0.24020546674728394f, -0.18458743393421173f, 0.11255992949008942f, -0.13897188007831573f, 0.10396149009466171f, -0.22102713584899902f, 0.07438130676746368f, -0.3898705244064331f, 0.3177419900894165f, -0.09012589603662491f, -0.03887000307440758f, 0.07836616039276123f, -0.07935089617967606f, -0.5069665312767029f, -0.5213658809661865f, 0.07906121760606766f, -0.48866286873817444f, -0.17285025119781494f, -0.6242104172706604f, -0.08717469871044159f, -0.3993595540523529f, -0.06644006818532944f, 0.047616492956876755f, 0.2976413071155548f, 0.016957281157374382f, 0.8234663009643555f, 0.42922309041023254f, -0.26438409090042114f, 0.09116536378860474f, -0.12997086346149445f, -0.042402125895023346f, -0.11949535459280014f, -0.3620109260082245f, -0.12356188893318176f, 0.27827921509742737f, -0.08545725047588348f, 0.15113157033920288f, 0.2050466239452362f, 0.19445912539958954f, 0.25808537006378174f, -0.2618978023529053f, 0.14786584675312042f, -0.1657077819108963f, -0.3788433372974396f, 0.1346922069787979f, 0.0723733976483345f, 0.8937798142433167f, 0.16133196651935577f, -0.11703185737133026f, 0.056927114725112915f, 0.08666449785232544f, -0.26229149103164673f, -0.31972020864486694f, -0.2718539834022522f, 0.6310743689537048f, 0.07580690085887909f, -0.210528165102005f, 0.3607417345046997f, 0.31515538692474365f, -0.11886416375637054f, 0.1349889039993286f, 0.8512874245643616f, 0.07813631743192673f, -0.6834666728973389f, 0.41757500171661377f, 0.3063371479511261f, -0.0003051461244467646f, 0.55850750207901f, -0.9126623868942261f, -0.13945674896240234f, -0.3560505211353302f, 0.00156786956358701f, 0.03388969227671623f, -0.052932269871234894f, -0.19115349650382996f, 0.7052333354949951f, -0.11141449213027954f, -0.498456746339798f, -0.26136139035224915f, 0.331157386302948f, 0.42405208945274353f, 0.3015214502811432f, -0.535037100315094f, -0.26459166407585144f, 0.21305951476097107f, 0.09707839787006378f, 0.07497275620698929f, -0.49076777696609497f, 0.24827773869037628f, 0.2124267816543579f, 0.9116098284721375f, 0.4049210250377655f, -0.0997382402420044f, -0.5901945233345032f, 0.10102562606334686f, -0.11490088701248169f, -0.5937886834144592f, 0.17040175199508667f, -0.04436387121677399f, 0.09459353983402252f, -0.15948925912380219f, -0.21274317800998688f, -0.23787640035152435f, 0.15765145421028137f, 0.3056250214576721f, -0.05171847343444824f, -0.23775486648082733f, -0.25992298126220703f, -0.14953429996967316f, -0.16184000670909882f, 0.06656556576490402f, 0.2751683294773102f, -0.19687260687351227f, -0.056932978332042694f, 0.021839039400219917f, 0.5198400616645813f, 0.153288334608078f, -0.037650175392627716f, -0.41809946298599243f, 0.09535730630159378f, -0.2979390323162079f, -0.0628083273768425f, 0.16874799132347107f, 0.025008123368024826f, 0.12145283073186874f, -0.03774118050932884f, -0.14732719957828522f, -0.29826176166534424f, -0.057476598769426346f, 0.02762194536626339f, -0.03316756710410118f, 0.173605814576149f, 0.011044920422136784f, -0.1130690723657608f, -0.07380406558513641f, -0.3038460314273834f, 0.15795952081680298f, 0.025022901594638824f, 0.31579458713531494f, -0.2662316560745239f, -0.03876584395766258f, 0.09480339288711548f, -0.3260346055030823f, 0.10467202216386795f, 0.3248894214630127f, 0.0985075980424881f, 0.10175944119691849f, -0.015773020684719086f, -0.17952881753444672f, 0.15131624042987823f, -0.023539084941148758f, 0.03891066834330559f, -0.06263541430234909f, -0.5548804402351379f, 1.0496604442596436f, -0.03137721121311188f, 0.2033034861087799f, 0.7074561715126038f, 0.8428833484649658f, -0.794340193271637f, 0.06775601953268051f, 2.5860960483551025f, -0.30620408058166504f, -0.6520583033561707f, 1.0016124248504639f, 1.0959880352020264f, 1.7067255973815918f, 0.3549167215824127f, -1.7612247467041016f, 1.3306390047073364f, -0.718165397644043f, 0.007108777295798063f, 0.03784830868244171f, -0.4984278082847595f, 0.1519276648759842f, 0.023138994351029396f, 0.3252564072608948f, -1.1353528499603271f, -1.3830918073654175f, 1.5438063144683838f, -0.19295784831047058f, 2.2267301082611084f, -1.9924862384796143f, -0.02994246780872345f, -0.11625075340270996f, -0.5914281606674194f, 0.6243672370910645f, -1.4616613388061523f, 0.631695568561554f, -0.5433996915817261f, 1.1835516691207886f, 0.8800720572471619f, -2.3489010334014893f, 1.047370195388794f, 0.7523474097251892f, -0.22044594585895538f, 0.1574356108903885f, -0.2176199108362198f, 0.1598009616136551f, 1.2749648094177246f, 0.7790940999984741f, 0.1427539885044098f, -0.6835517883300781f, -0.09176702797412872f, 0.07357268780469894f, 0.039207324385643005f, -0.03287145495414734f, -0.5246403813362122f, -0.5020209550857544f, 0.08397859334945679f, 0.2001597285270691f, 0.32607489824295044f, 0.19855241477489471f, -0.4394887387752533f, -0.016065701842308044f, 0.20806293189525604f, 0.6573143601417542f, -0.20060013234615326f, -0.02416583150625229f, 0.09337674081325531f, -0.17346839606761932f, 0.12616375088691711f, -0.06640162318944931f, -0.11549661308526993f, -0.1612091362476349f, 0.32988032698631287f, 0.02678457833826542f, -0.18005208671092987f, -0.020470645278692245f, 0.047272078692913055f, 0.6662678122520447f, -0.08264531940221786f, 0.17679819464683533f, 0.16731661558151245f, -0.05606202408671379f, 0.21561937034130096f, -0.5784947276115417f, -0.287907212972641f, 0.1055181473493576f, 0.31461626291275024f, -0.3711361289024353f, 0.14993536472320557f, 0.07399728894233704f, 0.11064057052135468f, 0.2870573103427887f, 0.002818474778905511f, -0.6532180309295654f, -0.453180730342865f, -0.2153991460800171f, -0.3364273011684418f, -0.23518593609333038f, 0.1323017030954361f, -0.18216972053050995f, -0.16549044847488403f, -0.515820324420929f, 0.14401941001415253f, -0.12632489204406738f, -0.6073269844055176f, 0.15392301976680756f, 0.10988297313451767f, -0.0009689898579381406f, -0.026329971849918365f, -0.4818146228790283f, -0.7229921221733093f, -0.5420087575912476f, 0.01032421737909317f, -0.6150603890419006f, -0.003666910110041499f, 0.2098197638988495f, 0.24370771646499634f, -0.5218464136123657f, -0.14297188818454742f, -0.2021969109773636f, -0.3825516104698181f, -0.08775871992111206f, -0.8393334150314331f, -0.2172269970178604f, 0.011608070693910122f, -0.04557392746210098f, -0.17800772190093994f, -0.2292732298374176f, 0.023306049406528473f, 0.6001599431037903f, -0.18058985471725464f, 0.16099099814891815f, -0.5048437714576721f, -0.8044639825820923f, 0.15767204761505127f, 0.09054391086101532f, -0.18064522743225098f, 0.06732125580310822f, -0.2557249665260315f, 0.4467269778251648f, 0.26965251564979553f, -0.7620782256126404f, 0.03769480809569359f, -0.6090541481971741f, -0.44135141372680664f, -0.1247439831495285f, 0.26492244005203247f, 0.5837968587875366f, 0.17347897589206696f, -0.3584287762641907f, 0.07978549599647522f, 0.04252231493592262f, -0.227817565202713f, 0.027585435658693314f, -0.0553826242685318f, 0.1004539430141449f, -0.32573002576828003f, -0.13208186626434326f, -0.5295678973197937f, -0.10338102281093597f, -0.1726313829421997f, -0.0718996673822403f, -0.14550435543060303f, -0.12804396450519562f, 0.3593716025352478f, 0.1711304932832718f, -0.15044040977954865f, -0.10187605023384094f, -0.1859327107667923f, 0.059657223522663116f, -0.12953469157218933f, 0.17263703048229218f, -0.015850337222218513f, 0.004510507918894291f, 0.04096757993102074f, -0.07575298100709915f, 0.01618894934654236f, -0.033839210867881775f, -0.0015937329735606909f, -0.04543638229370117f, 0.129294291138649f, -0.12055063247680664f, -0.05301237106323242f, 0.08172084391117096f, 0.27956533432006836f, 0.03620361164212227f, -0.030978728085756302f, 0.12820282578468323f, -0.09080000966787338f, -0.15275780856609344f, -0.7335749864578247f, -0.09619040787220001f, 0.07675299793481827f, 0.04243873059749603f, 0.005265869665890932f, 0.04017208516597748f, 0.25567013025283813f, 0.18253198266029358f, -0.09187111258506775f, -0.20965687930583954f, 0.20145639777183533f, 0.24586829543113708f, 0.14819402992725372f, 0.02668917179107666f, -0.11900181323289871f, 0.47246554493904114f, -0.029769867658615112f, -0.21954002976417542f, 0.07031992077827454f, 0.17190365493297577f, -0.3858778774738312f, 0.32231470942497253f, -0.3079942762851715f, -0.26655101776123047f, 0.5485110878944397f, 0.08390087634325027f, -0.04226883128285408f, 0.1859918236732483f, -0.6039924025535583f, 0.11696804314851761f, -0.05454978346824646f, -0.22138966619968414f, -0.9236174821853638f, -0.39411312341690063f, -0.2635524272918701f, -0.05693342536687851f, 0.07011125236749649f, 0.608771800994873f, 0.17157241702079773f, -0.5124766826629639f, 0.059476401656866074f, 0.2020517885684967f, 0.3947941064834595f, -0.1705392748117447f, 0.12833262979984283f, -0.11532582342624664f, 0.310342937707901f, -0.027649443596601486f, -0.15343576669692993f, -0.29539692401885986f, -0.37824171781539917f, 0.4496907889842987f, 0.4700235426425934f, -0.1692681759595871f, -0.12801280617713928f, 0.11554966866970062f, 0.08248661458492279f, -0.22575180232524872f, 0.06654573976993561f, -0.16426047682762146f, 0.2777368128299713f, -0.1211627796292305f, -0.194194495677948f, 0.1051318570971489f, -0.4478183090686798f, 0.05233230069279671f, -1.1236125230789185f, -0.2519610524177551f, 0.38306924700737f, -0.5129169821739197f, 0.18707051873207092f, 0.21352286636829376f, 0.225655660033226f, 0.5532838106155396f, -0.09648209065198898f, 0.20082753896713257f, -0.022789865732192993f, -0.47133728861808777f, -0.020218361169099808f, -0.09436880797147751f, 0.00043407068005762994f, 0.4075796604156494f, -0.4628811776638031f, -0.20319578051567078f, 0.327300488948822f, 0.4055648148059845f, -0.21008050441741943f, -0.08665909618139267f, -0.09019866585731506f, 0.5250482559204102f, 0.13766658306121826f, -0.032420892268419266f, 0.34629249572753906f, 0.12488754838705063f, 0.41589733958244324f, -0.04298946633934975f, -0.24635684490203857f, 0.5112608671188354f, -0.08595547080039978f, -0.7754561901092529f, -0.053626760840415955f, 0.05766585096716881f, 0.09367741644382477f, 0.04986358433961868f, 0.46046432852745056f, -0.16901086270809174f, 0.40118613839149475f, 0.5456506609916687f, -0.20416441559791565f, 0.2061600536108017f, 0.3389304578304291f, 0.20302274823188782f, 0.22407110035419464f, 0.011290284804999828f, -0.15043626725673676f, -0.3692929446697235f, -0.19438911974430084f, -0.21258069574832916f, -0.01643300987780094f, -0.15835466980934143f, 0.2978641092777252f, -0.11224760115146637f, 0.1747313141822815f, 0.5014557838439941f, 0.4641838073730469f, -0.2080027014017105f, -0.38740330934524536f, -0.010359984822571278f, -0.2385411262512207f, -0.060620129108428955f, 0.012309378013014793f, 0.2969784438610077f, -0.013917403295636177f, -0.36998775601387024f, -0.05231419578194618f, -0.1539926379919052f, 0.0033497700933367014f, 0.07420352101325989f, 0.14606404304504395f, -0.361515074968338f, 0.30082884430885315f, -0.3215237557888031f, 0.1702977567911148f, -0.18906736373901367f, -0.2642556130886078f, 0.27655652165412903f, -0.18861466646194458f, 0.31320297718048096f, -0.28559407591819763f, -0.5274704694747925f, -1.0226322412490845f, 0.15993185341358185f, 0.18237537145614624f, -0.4377846419811249f, 0.003104988019913435f, -0.12517541646957397f, 0.32782089710235596f, 0.5638093948364258f, -0.23459361493587494f, -0.18455447256565094f, 0.8570873141288757f, -0.4088538885116577f, 0.015850409865379333f, -0.06843232363462448f, -0.4366254508495331f, 0.10270168632268906f, -0.6866146922111511f, 0.17874731123447418f, -0.786178708076477f, -0.6070753335952759f, -0.11760785430669785f, -1.0951910018920898f, -0.5893686413764954f, -0.2642388343811035f, 2.330557107925415f, 0.9563871026039124f, 0.5685358643531799f, 0.07907968759536743f, 0.2639826238155365f, 0.08917377889156342f, -0.06666076183319092f, 0.8963942527770996f, 0.5050134658813477f, -1.0735021829605103f, 0.3361421227455139f, -0.11984465271234512f, -0.2772367000579834f, 0.5307404398918152f, -0.20205213129520416f, -0.6685620546340942f, -0.22212740778923035f, 0.23342159390449524f, -0.2737055718898773f, 0.8324810862541199f, 0.06789365410804749f, -0.6227558255195618f, -0.4220218360424042f, 1.6490963697433472f, 0.07258007675409317f, -0.5105968117713928f, -1.637877345085144f, -0.015615756623446941f, -0.49540457129478455f, 0.2589266896247864f, -0.29900574684143066f, -0.16207557916641235f, 0.6420309543609619f, 0.3426450788974762f, -0.1602237969636917f, -0.46771687269210815f, 0.061898138374090195f, 0.15411458909511566f, 0.08848674595355988f, 0.06990094482898712f, -0.5322033762931824f, 0.33981066942214966f, -1.0332472324371338f, -0.17009416222572327f, -0.6591026782989502f, -0.1987755447626114f, 0.2217312902212143f, -0.036539506167173386f, 0.3501838445663452f, -0.5217326283454895f, 0.39983227849006653f, -0.11350186169147491f, 0.19840699434280396f, 0.06361021101474762f, 0.11311638355255127f, 0.06590182334184647f, 0.39246076345443726f, 0.3839883804321289f, -0.42769855260849f, -0.3946993052959442f, 0.18910089135169983f, 0.005057953763753176f, -0.061250973492860794f, -0.5003926157951355f, 0.20715290307998657f, 0.3235865831375122f, 0.019792823120951653f, 0.3336784243583679f, -0.2584347426891327f, 0.26366373896598816f, 0.18201471865177155f, -0.03799664229154587f, 0.044158369302749634f, 0.3129154145717621f, 0.03802366927266121f, -0.281310498714447f, -0.47227561473846436f, 0.3864132761955261f, 0.22270162403583527f, 0.17282378673553467f, 0.4557977020740509f, 0.01680023968219757f, 0.6956028938293457f, 0.2563866972923279f, -0.14133775234222412f, 0.4141407310962677f, 0.4797911047935486f, 0.2575830817222595f, -0.005084514617919922f, -0.037225667387247086f, -0.6611335873603821f, 0.34656015038490295f, 0.5413419604301453f, -0.14113420248031616f, 0.17355279624462128f, 0.5356941819190979f, 1.4507602453231812f, 0.49269261956214905f, -0.4696528911590576f, 1.1501871347427368f, -1.442034363746643f, 0.13523925840854645f, 0.18466709554195404f, 0.35488638281822205f, 0.23407432436943054f, -0.11227800697088242f, 0.5913015007972717f, -0.520039975643158f, 0.16554565727710724f, 0.7974262237548828f, -0.0379309244453907f, -0.4037279188632965f, -0.033342208713293076f, -0.14510291814804077f, -0.24750615656375885f, -0.07638707011938095f, -0.23742370307445526f, -0.025826163589954376f, 0.4534003436565399f, -0.34921005368232727f, -0.2618984580039978f, -0.4148976802825928f, 0.47762224078178406f, 0.1861446052789688f, 0.33535444736480713f, 0.6868242025375366f, -0.06479012966156006f, -0.28790581226348877f, -0.5607894659042358f, -0.2712787389755249f, 0.19613933563232422f, -0.15057408809661865f, -0.9999999403953552f, -0.7440264225006104f, 0.2398192435503006f, 0.2849004566669464f, -0.4921378195285797f, 0.3719576299190521f, -0.13106712698936462f, 0.0439029335975647f, -0.08291492611169815f, -0.36477595567703247f, -0.010637045837938786f, -0.23088087141513824f, -0.0682099238038063f, 0.047359928488731384f, -0.27810052037239075f, -0.0563960000872612f, 0.2051665484905243f, -0.3137107789516449f, -0.09831394255161285f, 0.05346112325787544f, -0.1804206520318985f, -0.2525319457054138f, 0.1444953978061676f, -0.05040154233574867f, 0.28042832016944885f, 0.05651345103979111f, -0.057933300733566284f, -0.22119998931884766f, 0.13388974964618683f, -0.0846002846956253f, 0.11405421048402786f, -0.15512126684188843f, 0.05898484215140343f, -0.030213257297873497f, -0.11924425512552261f, -0.11640332639217377f, 0.10685242712497711f, -0.2506190538406372f, 0.07922777533531189f, 0.11284907162189484f, -0.22032888233661652f, -0.5263093709945679f, 0.18129202723503113f, 0.12689761817455292f, 0.35947728157043457f, 0.01261783018708229f, 0.5382781624794006f, -0.08173514157533646f, 0.10475515574216843f, -0.10411711037158966f, 0.023834245279431343f, -0.014563660137355328f, -0.1398671716451645f, 0.38746726512908936f, -0.8054476380348206f, 0.4070579707622528f, 0.016967639327049255f, 0.033938296139240265f, -0.7429730296134949f, -0.09494832158088684f, 0.7059350609779358f, 0.14031200110912323f, -0.6718856692314148f, 0.08688665181398392f, -0.4236516058444977f, -0.1074470728635788f, 0.21916897594928741f, -0.45576101541519165f, 0.2735883891582489f, 0.18625885248184204f, 0.051461152732372284f, 0.582194983959198f, -0.4415167272090912f, 0.0722469761967659f, -0.2407480627298355f, -0.19308000802993774f, -0.14556415379047394f, -0.05743364617228508f, -0.1500263512134552f, -0.6386411786079407f, 0.27081000804901123f, -0.12321778386831284f, 0.15764263272285461f, -0.1549530327320099f, -0.278698205947876f, -0.2060590237379074f, 0.14534543454647064f, -0.019209807738661766f, -0.28742459416389465f, -0.13601188361644745f, -0.5293260216712952f, -0.5930126309394836f, -0.21635101735591888f, -0.06021847575902939f, 0.7569825053215027f, 0.297958105802536f, 0.016604911535978317f, -0.01725149340927601f, -0.48881420493125916f, -0.12069154530763626f, 0.22237344086170197f, 0.02375505492091179f, -0.05780963972210884f, 0.4222828447818756f, -0.39788997173309326f, 0.0983249768614769f, -0.06175552308559418f, -0.2174585461616516f, 0.056523267179727554f, -0.18115508556365967f, -0.14143989980220795f, -0.14128577709197998f, -0.4544512629508972f, -0.05898256227374077f, -0.13042020797729492f, -1.042360544204712f, 0.1921020746231079f, -0.26137858629226685f, 0.1500183343887329f, 0.4007881283760071f, -0.39652585983276367f, 0.6013307571411133f, 0.018419979140162468f, -0.1613151580095291f, 0.28943562507629395f, 0.21417273581027985f, 0.43147706985473633f, 0.3099246323108673f, -0.10871241241693497f, -0.027917101979255676f, -0.1902780532836914f, -1.0267549753189087f, -0.18728795647621155f, 0.16589340567588806f, -0.6721723079681396f, 0.18353840708732605f, 0.5309398174285889f, -0.24618682265281677f, 0.24961918592453003f, -0.3617958724498749f, 0.5941954255104065f, -1.052991271018982f, -0.07937557250261307f, 0.024988191202282906f, 0.1514815241098404f, 0.17623783648014069f, 0.556538462638855f, 0.24299608170986176f, -0.1922474503517151f, -0.14087119698524475f, 0.0009047880885191262f, -0.016993261873722076f, -0.07777554541826248f, -0.02509666047990322f, -0.15966856479644775f, 0.27752095460891724f, 0.05857984721660614f, -0.03120741993188858f, -0.025052299723029137f, -0.7349310517311096f, -0.0667031928896904f, 0.08232768625020981f, 0.09119360148906708f, -0.3330901563167572f, -0.05071786791086197f, -0.32613396644592285f, 0.14532551169395447f, -0.3582722544670105f, -0.05976176634430885f, 0.13540439307689667f, 0.020372916013002396f, 0.00616249768063426f, -0.08223602175712585f, 0.1838689148426056f, 0.30267295241355896f, 0.25675857067108154f, 0.11799661815166473f, -0.25060680508613586f, 0.019920893013477325f, 0.08180327713489532f, -0.2489209920167923f, -0.25633639097213745f, -0.21489578485488892f, 0.21150727570056915f, -0.13616901636123657f, 0.050918545573949814f, 0.24159663915634155f, 0.06215563043951988f, 0.05077764764428139f, -0.09226389974355698f, -0.2594704329967499f, -0.7892631888389587f, 0.15835022926330566f, 0.013773209415376186f, 0.469167560338974f, -0.2674896717071533f, 0.2853829860687256f, -0.09275362640619278f, -0.2823285460472107f, -0.1369064599275589f, 0.18884463608264923f, -0.008865206502377987f, 0.04800068959593773f, 0.24366353452205658f, -0.7213550806045532f, -0.01330096460878849f, 0.051715537905693054f, 0.12544836103916168f, 1.2953654527664185f, -0.6654440760612488f, -0.6421579122543335f, -0.1902686059474945f, -0.21878939867019653f, -0.1566327065229416f, -0.4887368679046631f, -1.3481608629226685f, -1.5513538122177124f, -1.954047441482544f, -0.6313645243644714f, 0.8592433333396912f, 0.2572779059410095f, -1.0561529397964478f, 0.06758856028318405f, -0.22152312099933624f, 1.4592286348342896f, 0.592271625995636f, -0.09509514272212982f, -0.37852001190185547f, 0.14986880123615265f, -0.5106793642044067f, -0.44824376702308655f, -1.3370575904846191f, -0.2676753103733063f, -0.6116901636123657f, -1.0282244682312012f, 0.8289781808853149f, 1.613011121749878f, -0.5420941114425659f, 1.281302809715271f, -1.7266560792922974f, 0.7300421595573425f, -1.7062381505966187f, -0.16353735327720642f, 0.758091151714325f, 0.41926631331443787f, -0.2305610477924347f, 2.530103921890259f, 0.6005474328994751f, 0.37467026710510254f, -0.16764065623283386f, -1.1463061571121216f, -0.8301355242729187f, -0.05446910485625267f, 0.118761345744133f, 0.5403772592544556f, 0.5452262163162231f, 0.06255508959293365f, -0.009435825981199741f, 0.1264471411705017f, 0.3190983533859253f, 0.024492010474205017f, -0.0456765741109848f, -0.3255423903465271f, -0.24156832695007324f, -0.1887202262878418f, -0.11889316886663437f, 0.16782733798027039f, 0.2738122344017029f, 0.28436318039894104f, -0.20393453538417816f, 0.14373904466629028f, -0.18509450554847717f, -0.2175920158624649f, -0.1847010999917984f, 0.12864001095294952f, 0.5535580515861511f, -0.06202578917145729f, -1.0686426162719727f, -0.37529057264328003f, -0.407204806804657f, 0.08662812411785126f, -1.0524836778640747f, 0.040865518152713776f, -0.02358768694102764f, 0.037641942501068115f, 0.6980319023132324f, 0.7231951355934143f, 0.7184863686561584f, 0.3358045220375061f, -0.5271646976470947f, 0.44505733251571655f, 0.03424067795276642f, -0.27248135209083557f, 0.2467358410358429f, -0.04931364580988884f, -0.17446301877498627f, 0.4619266092777252f, 0.6715170741081238f, 0.030009552836418152f, -0.04520253837108612f, -0.2166382372379303f, -0.24682681262493134f, -0.19890959560871124f, 0.09016679227352142f, -0.9667332768440247f, -0.1517380028963089f, -0.08906179666519165f, 0.16237960755825043f, 0.6401879787445068f, -0.6867967247962952f, 0.07090941071510315f, 0.06200823560357094f, -0.9857314825057983f, -0.16694782674312592f, 0.011103304103016853f, -0.2212710678577423f, -0.24771009385585785f, -0.07787089049816132f, 0.2618592381477356f, 0.6176304817199707f, -0.8085817694664001f, 0.6781706213951111f, -0.11398212611675262f, 0.043467529118061066f, -0.29704537987709045f, -0.08999352902173996f, -0.3596203327178955f, 1.203636884689331f, 0.07157320529222488f, 0.39618390798568726f, 0.11566755920648575f, -0.33482545614242554f, -0.29723450541496277f, -0.4350571036338806f, 0.23816192150115967f, -0.6315547227859497f, -0.17335423827171326f, -0.8291441798210144f, -0.4409636855125427f, 0.22855433821678162f, -0.6270230412483215f, -0.1428765505552292f, 0.18908321857452393f, -0.23776163160800934f, -0.4963988959789276f, -0.13110385835170746f, 0.03701477497816086f, 0.09552275389432907f, 0.22654642164707184f, 0.09811650216579437f, -0.13056185841560364f, 0.40122702717781067f, 0.10684440284967422f, 0.07073908299207687f, -0.025384698063135147f, -0.09433688223361969f, -0.07031509280204773f, -0.2904938757419586f, -0.031444817781448364f, -0.045568179339170456f, 0.10103051364421844f, -0.06981322914361954f, 0.17142842710018158f, 0.32651737332344055f, 0.11389598250389099f, 0.06595773994922638f, -0.07822755724191666f, 0.20973484218120575f, -0.38844889402389526f, -0.22251677513122559f, 0.107054702937603f, 0.1676616370677948f, 0.24618183076381683f, -0.153660848736763f, -0.03456290811300278f, -0.20486654341220856f, -0.09975144267082214f, -0.12018571048974991f, -0.12946809828281403f, 0.08052609115839005f, -0.07779094576835632f, -0.014802899211645126f, -0.1497921198606491f, 0.10688631981611252f, 0.06712786853313446f, 0.12997132539749146f, -0.16281595826148987f, 0.06428718566894531f, 0.052859220653772354f, -0.17618586122989655f, 0.08740878850221634f, -0.08338110893964767f, 0.061013512313365936f, 0.21235373616218567f, 0.2518853545188904f, 0.09484075009822845f, -0.20269492268562317f, -0.1272895485162735f, 0.07496083527803421f, -0.2227202206850052f, 0.0027533662505447865f, -0.2673875391483307f, -0.051145948469638824f, -0.024798506870865822f, -0.05748507380485535f, 0.16236059367656708f, -0.03255903720855713f, 0.04126148298382759f, 0.6428905725479126f, -0.3176290988922119f, -0.07415127009153366f, -0.0010485503589734435f, 0.02005218341946602f, 0.016445526853203773f, 0.7385345101356506f, 0.2383444607257843f, -0.13688978552818298f, -0.06284742802381516f, -0.0529000423848629f, -0.5173856019973755f, 0.05334749072790146f, 0.05822250247001648f, -0.05441749095916748f, 0.06982994824647903f, -0.2570004463195801f, 0.1682252138853073f, 0.20774954557418823f, 0.10013188421726227f, -0.033195074647665024f, -0.17739230394363403f, 0.006176046561449766f, 0.18765926361083984f, -0.38248637318611145f, 0.18966425955295563f, -0.23617619276046753f, 0.1837603896856308f, 0.36375606060028076f, 0.21018123626708984f, 0.012340529821813107f, -0.0644867941737175f, 0.006555883679538965f, 0.3494803011417389f, 0.2188119739294052f, 0.3838178217411041f, -0.0020620678551495075f, -0.4681272506713867f, -0.23243895173072815f, -0.7142358422279358f, 0.5388198494911194f, 0.19884167611598969f, -0.010846603661775589f, -0.38913580775260925f, -0.022756610065698624f, -0.04637332260608673f, 0.12292756140232086f, -0.4774564206600189f, -0.12140926718711853f, -0.044687189161777496f, 0.5419275760650635f, -0.2482808232307434f, 0.04774846136569977f, 0.2035655379295349f, 0.008368096314370632f, 0.0853504091501236f, 0.6031069159507751f, -0.10390403866767883f, -0.027744803577661514f, 0.15153281390666962f, 0.1699800193309784f, -0.6001179218292236f, 0.08725180476903915f, 0.0662393793463707f, -0.012343083508312702f, 0.12409713119268417f, -0.17204298079013824f, -0.1370038539171219f, 0.24562032520771027f, 0.2737536132335663f, 0.09064076095819473f, 0.5656120181083679f, -0.0786382332444191f, 0.3835836350917816f, -0.4071117639541626f, 0.48935896158218384f, 0.12711861729621887f, 0.07275740802288055f, 0.17888550460338593f, 0.10075942426919937f, 0.14055810868740082f, 0.16282492876052856f, 0.003349567763507366f, -0.1559918075799942f, -0.2055305689573288f, 0.40918850898742676f, -0.38813516497612f, -0.048096638172864914f, -0.3920893371105194f, -0.03108244389295578f, 0.5055338740348816f, 0.1423645168542862f, 0.10683853924274445f, -0.2566453218460083f, 0.014393923804163933f, 0.12750324606895447f, -0.15000560879707336f, -0.13599856197834015f, -0.009567201137542725f, -0.16102977097034454f, 0.4369945526123047f, -0.37754926085472107f, 0.14972393214702606f, -0.11253512650728226f, 0.012945367023348808f, -0.1294672191143036f, 0.24245703220367432f, 0.1120237484574318f, 0.2336779087781906f, 0.2503277063369751f, -0.07671960443258286f, -0.1801440268754959f, -0.12568099796772003f, -0.12808655202388763f, 0.024602143093943596f, 0.07054170966148376f, 0.1544196903705597f, -0.051007963716983795f, 0.2321084588766098f, 0.11463487893342972f, 0.28217577934265137f, 0.1974998265504837f, -0.20680779218673706f, 0.049481671303510666f, -0.44037631154060364f, 0.40341001749038696f, -0.26789841055870056f, 0.20529764890670776f, -0.0774124264717102f, 0.2345101684331894f, 0.3803797662258148f, 0.006193635985255241f, -0.081492580473423f, 0.011463870294392109f, 0.07963574677705765f, 0.41990843415260315f, 0.22974705696105957f, 0.004934955388307571f, 0.019967341795563698f, 0.08486126363277435f, 0.19500650465488434f, 0.06777320802211761f, 0.1773608773946762f, -0.24888497591018677f, 0.1690569818019867f, -0.1379479020833969f, 0.29996350407600403f, -1.0273451805114746f, 0.19582943618297577f, 0.2784767150878906f, 2.0052554607391357f, -0.4945301413536072f, 0.5037164688110352f, -0.18018874526023865f, -0.15001291036605835f, 0.711548388004303f, 0.6642268300056458f, -0.019204415380954742f, 0.5139856934547424f, -0.4858524203300476f, -0.7928338646888733f, 0.12100160866975784f, -0.7101561427116394f, -0.16562195122241974f, -0.1910197138786316f, 0.1823926568031311f, 0.39601632952690125f, -1.3749258518218994f, -0.021142425015568733f, 0.7057293653488159f, -0.33281010389328003f, 0.3013726770877838f, -0.33847805857658386f, 0.6844496726989746f, -0.8256392478942871f, 0.0542958565056324f, -0.43419063091278076f, 0.24398396909236908f, -0.5271725654602051f, 0.3875848650932312f, 0.5146176815032959f, 0.5213188529014587f, 0.683063805103302f, -0.7812812924385071f, 0.05543071776628494f, 0.3203464448451996f, 0.3427838683128357f, -0.6493135690689087f, 0.2840290665626526f, 0.6138255596160889f, -0.2008376270532608f, 0.1304849535226822f, -0.1438634991645813f, -1.6497960090637207f, 0.24563151597976685f, -0.1870209276676178f, -0.3665347695350647f, -0.19677579402923584f, -0.08035390079021454f, -0.040616102516651154f, -0.041832342743873596f, 0.04637062922120094f, 0.37331199645996094f, 0.1219366267323494f, -0.33420154452323914f, -0.0011204262264072895f, 0.024564284831285477f, 0.1691209226846695f, -0.3339702785015106f, 0.07463841140270233f, -0.3908212184906006f, 0.24677282571792603f, -0.2337542027235031f, 0.07508959621191025f, 0.2563863694667816f, -0.21538634598255157f, -0.35609784722328186f, -0.28734225034713745f, -0.044527966529130936f, 0.22377589344978333f, 0.20476919412612915f, -0.04487178102135658f, -0.054542578756809235f, 0.2694050669670105f, -0.18479153513908386f, 0.042139507830142975f, 0.08131419122219086f, -0.30106639862060547f, -0.0974888727068901f, -0.8238155841827393f, 0.02806612104177475f, 0.20390771329402924f, -0.12253973633050919f, -0.20277062058448792f, -0.17099079489707947f, 0.14542457461357117f, 0.2219550907611847f, 0.14235073328018188f, -0.2565036118030548f, -0.3115132749080658f, -0.49628299474716187f, 0.19693468511104584f, -0.11903262138366699f, 0.10907666385173798f, 0.08676421642303467f, 0.006650760304182768f, 0.18694736063480377f, -0.1298740655183792f, 0.23027656972408295f, -0.036787521094083786f, -0.07438383251428604f, -0.23110629618167877f, 0.30395403504371643f, -0.1607362926006317f, 0.14408044517040253f, -0.6383108496665955f, -0.6385866403579712f, 0.23627328872680664f, -0.13810685276985168f, -0.7442832589149475f, 0.5705892443656921f, -0.11804108321666718f, -0.16914910078048706f, -0.011768195778131485f, -0.06320352852344513f, 0.1677490472793579f, -0.2341437041759491f, -0.19626274704933167f, -0.4831947684288025f, -0.23677855730056763f, 0.2011878490447998f, 0.40323466062545776f, 0.13243740797042847f, 0.6562047600746155f, -0.013316457159817219f, -0.24272319674491882f, -0.08462321758270264f, -0.03964780271053314f, 0.250638484954834f, -0.5990715622901917f, -0.3048548102378845f, 0.11113709956407547f, -0.2757051885128021f, -0.10997044295072556f, -0.040248218923807144f, -0.36571186780929565f, 0.19732561707496643f, 0.05461864545941353f, 0.2642773687839508f, 0.18315686285495758f, -0.25719311833381653f, -0.06159311532974243f, 0.5967935919761658f, 0.680516242980957f, -0.1797989457845688f, -0.040815569460392f, 0.0518345907330513f, -0.0702061653137207f, 0.0f, -0.06001479923725128f, -0.27552032470703125f, -0.396513432264328f, 0.13806845247745514f, -0.028555531054735184f, 0.2148818075656891f, -0.27322110533714294f, 0.20278461277484894f, -0.12960055470466614f, 0.2674965262413025f, 0.3715677559375763f, 0.08243338763713837f, 0.04039059951901436f, -0.16835442185401917f, 0.09932974725961685f, -0.01615307480096817f, -0.0072984411381185055f, 0.20560583472251892f, 0.19703726470470428f, -0.14903220534324646f, -0.23089399933815002f, 0.015437011606991291f, 0.17693038284778595f, -0.056266799569129944f, -0.14263227581977844f, -0.23797756433486938f, 0.3271847367286682f, -0.039213426411151886f, 0.06553017348051071f, -0.14483101665973663f, -0.01697668991982937f, 0.07550051063299179f, 0.24425582587718964f, -0.027131859213113785f, -0.07803159207105637f, 0.05068490281701088f, 0.2861458957195282f, 0.091026172041893f, -0.014952799305319786f, -0.1287665069103241f, -0.1474897712469101f, 0.15688756108283997f, 0.0f, 0.08876506984233856f, 0.1751636415719986f, -0.05363742634654045f, -0.17442594468593597f, 0.3888223171234131f, 0.12392286956310272f, 0.14480258524417877f, -0.5512503981590271f, -0.1010514423251152f, 0.6030786037445068f, 0.3907819092273712f, -0.14341308176517487f, -0.3119799792766571f, 0.3138757050037384f, 0.4041563868522644f, -0.10867874324321747f, -0.2311388999223709f, -0.3103635013103485f, 0.2716212868690491f, 0.24754416942596436f, 0.05732455849647522f, -0.18034666776657104f, -0.11457306146621704f, -0.0510261170566082f, 0.005434952210634947f, 0.029117517173290253f, -0.17131391167640686f, -0.19948576390743256f, -0.5863293409347534f, 0.6217905879020691f, -1.1621160507202148f, -0.17866428196430206f, -0.06715590506792068f, 0.7796730995178223f, -2.4775779247283936f, -0.21844570338726044f, 0.14493650197982788f, -0.24624532461166382f, 0.174721822142601f, 0.17974406480789185f, -2.388000965118408f, 0.658592164516449f, 0.5124457478523254f, 0.31226518750190735f, -0.5897574424743652f, -0.3479883372783661f, -0.051475539803504944f, -0.016188224777579308f, 0.3049197793006897f, 0.09905906766653061f, 0.19235223531723022f, 0.14408333599567413f, -1.6596007347106934f, 0.5925391912460327f, -1.2931748628616333f, 0.560425341129303f, 0.7440757751464844f, -0.7088377475738525f, -0.21663327515125275f, 0.26482927799224854f, -0.3738701045513153f, 0.25948670506477356f, 0.15048211812973022f, 0.15613874793052673f, 0.8561984300613403f, 0.13757480680942535f, 0.9951014518737793f, -0.2418164312839508f, -1.4717140197753906f, 0.36252185702323914f, 0.31094422936439514f, -0.004283057060092688f, -0.9819902777671814f, 0.6359429359436035f, 0.18514007329940796f, 0.18903295695781708f, 0.1264384537935257f, -0.25031545758247375f, -0.06717263162136078f, 0.42653074860572815f, -0.391090989112854f, 0.015332275070250034f, -0.09647232294082642f, -1.105705976486206f, 0.009576233103871346f, 0.08324449509382248f, -0.8031734228134155f, 0.38175448775291443f, -1.6711194515228271f, -0.21531666815280914f, 0.06556318700313568f, 0.11372381448745728f, 0.08326499909162521f, 0.5705792307853699f, 0.31592145562171936f, 0.6324900984764099f, -0.16302479803562164f, 0.22326026856899261f, -0.018132904544472694f, -0.6873907446861267f, 0.10597845911979675f, 0.9673349857330322f, -0.8206172585487366f, -0.6792598366737366f, -0.1811532825231552f, 0.012779178097844124f, -0.8079683780670166f, -0.7074384689331055f, -0.22349239885807037f, -0.1163780689239502f, 1.357405662536621f, -0.25970470905303955f, -0.31719470024108887f, -0.051821667701005936f, 0.27536553144454956f, 0.015169824473559856f, 0.25828519463539124f, 0.14883771538734436f, 0.18072378635406494f, -0.14075128734111786f, 0.11246781051158905f, -0.11684844642877579f, 0.00405548233538866f, 0.017556216567754745f, 0.055456116795539856f, 0.09376297891139984f, 0.3542037606239319f, 0.07667402923107147f, -0.8048427700996399f, -0.6482568383216858f, 0.33138853311538696f, -0.3868602216243744f, 0.35595741868019104f, -0.4217584729194641f, 0.17833727598190308f, -0.0291297510266304f, -0.20015665888786316f, -0.3067324757575989f, 1.078850507736206f, -0.5551129579544067f, -0.06461568176746368f, -0.4765731394290924f, -0.27605459094047546f, 0.5775600671768188f, -0.3825112283229828f, 0.03145682439208031f, -0.336389422416687f, 0.762732207775116f, 0.047306597232818604f, 0.18432371318340302f, 0.1838226467370987f, -0.1841670721769333f, -0.0023022815585136414f, 0.22760610282421112f, -0.4515174925327301f, 0.016312165185809135f, 0.2070198655128479f, -0.4091198444366455f, -0.37730056047439575f, 0.18874596059322357f, 0.06634789705276489f, -0.3066644072532654f, -0.344192773103714f, 0.2299637645483017f, -0.09710430353879929f, -0.17212076485157013f, -0.6784375905990601f, -0.528247058391571f, 0.38803425431251526f, -0.5622127652168274f, -0.0004736249102279544f, -0.24060577154159546f, 0.03229304403066635f, 0.5741063356399536f, -1.1535202264785767f, 0.21136778593063354f, 0.2483363151550293f, 0.38605818152427673f, -0.30562472343444824f, 0.14746889472007751f, 0.7213699817657471f, -0.2854103744029999f, -0.47786739468574524f, 0.2973466217517853f, 0.21717993915081024f, 0.08026518672704697f, -0.24090224504470825f, 0.0237423125654459f, -0.1334535926580429f, 0.3838527798652649f, -0.10015847533941269f, 0.03148897364735603f, 0.24140584468841553f, -0.033488303422927856f, 0.15185563266277313f, -0.27765074372291565f, 0.20910386741161346f, 0.20341405272483826f, -0.0688517615199089f, -0.036374595016241074f, 0.37216687202453613f, -0.285733163356781f, -0.8896291851997375f, -0.026439478620886803f, 0.1682298332452774f, 0.8183676600456238f, -0.039488162845373154f, -0.1308884173631668f, -0.013479736633598804f, 0.5880937576293945f, 0.2883906364440918f, -0.36473318934440613f, -0.030197424814105034f, -0.25277575850486755f, -0.03668970987200737f, -0.058143168687820435f, 0.16162285208702087f, 0.299459308385849f, -0.3212920129299164f, 0.1710471510887146f, -0.008586321957409382f, 0.3505875766277313f, 0.1766880303621292f, 0.194708913564682f, 0.24167318642139435f, -0.2855313718318939f, -2.133867025375366f, -0.3797532916069031f, -0.4422784745693207f, 1.0753413438796997f, 0.40254172682762146f, -0.8882623910903931f, -0.39976567029953003f, -0.3284463882446289f, 0.2717401385307312f, 0.20864571630954742f, 0.1888456493616104f, -0.15379038453102112f, -0.16172145307064056f, 1.2548284530639648f, -0.24907450377941132f, -1.3148592710494995f, -0.7083086371421814f, -0.6640837788581848f, 1.3288300037384033f, -0.8080037236213684f, -0.23673485219478607f, -0.6969463229179382f, -0.4405807852745056f, -0.24576926231384277f, 0.384113073348999f, -0.23108549416065216f, -0.8365692496299744f, 0.26026666164398193f, 0.48689788579940796f, -0.7572309970855713f, -1.8319995403289795f, -0.1580256223678589f, 0.2741715610027313f, -0.09666580706834793f, -0.14281690120697021f, 0.3424167037010193f, 1.3679310083389282f, 0.3340803384780884f, 0.9845141768455505f, -1.2195883989334106f, -1.7659462690353394f, -0.3945872187614441f, 0.22319963574409485f, -0.11802256852388382f, 0.40934741497039795f, -1.1050827503204346f, 0.4124584197998047f, -0.09420524537563324f, -0.2104780673980713f, 0.3247489929199219f, 0.10657820105552673f, -0.03968796133995056f, 0.07551127672195435f, -0.0949040949344635f, 0.5019426941871643f, -0.21658141911029816f, -0.09187695384025574f, 0.09662415832281113f, -0.24707680940628052f, -0.12484978884458542f, 0.24300870299339294f, -0.2346886396408081f, 0.05598664656281471f, -0.21571369469165802f, -0.15718388557434082f, 0.06602323800325394f, 0.17762650549411774f, -0.014071108773350716f, 0.2233307957649231f, 0.11071567982435226f, -0.14864042401313782f, 0.020049506798386574f, -0.0936875194311142f, 0.048441674560308456f, -0.32847025990486145f, -0.34170982241630554f, -0.006274864077568054f, 0.38223588466644287f, 0.1745888590812683f, -0.07178426533937454f, 0.1862943321466446f, -0.028973262757062912f, -0.12306874245405197f, -0.040263641625642776f };